tree
version=v4
num_class=1
num_tree_per_iteration=1
label_index=0
max_feature_idx=7
objective=binary sigmoid:1
feature_names=category_encoded subcategory_encoded price price_normalized fav_category fav_subcategory avg_price purchase_count
feature_infos=[0:7] [0:14] [85:1850] [0:1] [0:7] [1:14] [181.02272727272728:1116.0999999999999] [11:35]
tree_sizes=6743 6749 6748 6761 6760 6747 6744 6752 6736 6769 6758 6763 6759 6769 6773 6763 6762 6762 6780 6765 6762 6766 6775 6786 6785 6774 6738 6780 6750 6765 6755 6774 6785 6773 6766 6755 6772 6766 6778 6773 6758 6755 6767 6767 6724 6780 6768 6756 6750 6752 6761 6799 6756 6744 6742 6795 6760 6753 6770 6756 6762 6768 6731 6763 6725 6737 6772 6751 6759 6768 6776 6784 6779 6755 6715 6729 6751 6725 6755 6755 6763 6722 6724 6724 6748 6748 6739 6731 6768 6701 6730 6767 6773 6724 6751 6723 6755 6723 6728 6726 6738 6720 6743 6748 6724 6767 6729 6736 6758 6703 6722 6774 6702 6725 6726 6723 6744 6741 6723 6747 6725 6766 6733 6722 6754 6765 6719 6742 6733 6733 6732 6753 6723 6747 6721 6720 6734 6768 6719 6731 6704 6725 6739 6749 6733 6747 6750 6729 6725 6734 6736 6716 6714 6762 6731 6738 6736 6749 6728 6722 6760 6747 6736 6724 6745 6736 6753 6762 6742 6747 6741 6751 6731 6736 6761 6772 6748 6720 6722 6736 6754 6727 6745 6753 6747 6734 6755 6726 6745 6714 6735 6740 6744 6725 6736 6729 6737 6754 6768 6731 6728 6708 6724 6748 6702 6732 6737 6744 6730 6725 6741 6762 6759 6744 6762 6728 6718 6747 6731 6732 6716 6743 6729 6759 6749 6727 6752 6720 6771 6737 6730 6761 6787 6732 6698 6717 6707 6698 6744 6734 6728 6736 6736 6724 6733 6754 6724 6743 6741 6742 6745 6713 6728 6723 6713 6766 6754 6772 6752 6730 6750 6773 6741 6743 6742 6724 6725 6743 6761 6716 6781 6748 6741 6710 6749 6765 6736 6739 6753 6779 6719 6734 6754 6737 6732 6743 6783 6762 6748 6775 6766 6738 6740 6743 6756 6743 6731 6752 6782 6781

Tree=0
num_leaves=63
num_cat=0
split_feature=1 5 5 1 2 6 6 1 1 1 1 1 2 6 2 6 2 4 6 2 6 2 2 6 6 2 6 6 0 1 5 1 1 5 5 5 5 5 5 1 2 5 6 5 5 2 6 7 6 2 5 6 6 6 5 2 6 6 2 6 2 6
split_gain=335.439 567.55 352.514 362 215.457 375.304 303.246 296.351 156.677 260.47 158.459 190.733 96.2256 289.574 86.8511 136.117 72.5901 80.9897 66.7137 407.562 168.69 180.906 70.8304 731.843 364.677 114.356 204.406 62.4814 59.0889 55.1166 54.0291 92.4649 72.2644 108.347 55.2771 51.4298 48.0533 48.0531 47.262 45.6461 34.2348 36.3713 33.2105 33.0771 32.0355 30.5923 35.0616 30.0022 30.3532 42.0319 29.9668 29.5118 43.4185 28.7034 34.5177 28.5747 283.85 103.465 56.6551 28.3423 26.1952 46.7817
threshold=13.500000000000002 13.500000000000002 13.500000000000002 10.500000000000002 428.50000000000006 286.7351973684211 447.69981060606068 7.5000000000000009 2.5000000000000004 1.5000000000000002 4.5000000000000009 5.5000000000000009 222.50000000000003 497.52173913043481 346.50000000000006 522.16304347826099 422.50000000000006 4.5000000000000009 482.88949579831939 408.00000000000006 381.29166666666669 705.00000000000011 667.50000000000011 798.56666666666672 739.71875000000011 705.00000000000011 561.35833333333346 228.29447115384619 6.5000000000000009 5.5000000000000009 10.500000000000002 3.5000000000000004 3.5000000000000004 3.5000000000000004 3.5000000000000004 2.0000000000000004 2.0000000000000004 4.5000000000000009 5.5000000000000009 11.500000000000002 1060.0000000000002 4.5000000000000009 381.29166666666669 3.5000000000000004 4.5000000000000009 200.50000000000003 414.796551724138 21.500000000000004 659.50000000000011 794.50000000000011 3.5000000000000004 212.20500000000001 286.7351973684211 582.70175438596505 3.5000000000000004 346.50000000000006 561.35833333333346 402.18736383442274 418.00000000000006 264.83333333333343 765.00000000000011 729.13437500000009
decision_type=2 2 2 2 2 2 2 2 2 2 2 2 2 2 2 2 2 2 2 2 2 2 2 2 2 2 2 2 2 2 2 2 2 2 2 2 2 2 2 2 2 2 2 2 2 2 2 2 2 2 2 2 2 2 2 2 2 2 2 2 2 2
left_child=2 14 12 4 6 -6 28 8 9 -7 -10 47 13 39 15 45 17 27 19 -14 -21 -22 23 29 25 -24 43 -5 -4 30 32 -32 33 35 36 -20 -34 -16 -31 59 -28 -42 -39 -27 50 46 -2 -12 49 -49 -17 -30 -53 54 -15 56 -3 58 -57 -1 61 -50
right_child=1 55 3 16 5 7 -8 -9 10 -11 11 -13 18 53 37 44 -18 -19 22 20 21 -23 24 -25 -26 26 40 -29 51 38 31 -33 34 -35 -36 -37 -38 42 -40 -41 41 -43 -44 -45 -46 -47 -48 48 60 -51 -52 52 -54 -55 -56 57 -58 -59 -60 -61 -62 -63
leaf_value=0.048589663792631486 0.0098973286920954126 0.06836756996364543 0.073982241919112027 -0.076105435164446678 -0.099999981003543112 -0.099999981003543112 -0.089821146046620406 0.081794425997620712 -0.094457383512453225 0.091556292955398244 -0.030735130716135099 -0.09469255530625921 0.070243901167736933 0.030385400716193417 -0.040469097615731836 -0.07768555604974467 -0.096942097702199012 -0.093968705981356884 -0.099999981003543112 -0.099999981003543112 0.019666004854692099 -0.099999981003543112 0.024717697722261799 -0.090316452853691956 0.038792021782625509 -0.03540413686038444 0.0017864222510637488 0.061951390241738222 0.059297539690613764 -0.0061939876021931389 0.029772230379621605 -0.099999981003543112 0.03842338598493554 -0.087017365983065767 0.071722025951020771 0.066527492818168485 -0.09999998100354307 -0.071550846260427459 0.028963585195132868 0.072329942761173688 0.0011992085037786646 -0.099999981003543112 0.02900186352006499 -0.098364281211616778 -0.093823100931648487 0.024225142912785921 -0.099999981003543112 0.023200991022050449 0.062638966791260714 -0.087293679845318481 -0.0032201681131099886 -0.099999981003543084 0.024440298940791656 -0.089941493591475727 -0.068983765340522252 0.070708500713132338 -0.099999981003543112 0.085206357590550966 -0.069573704575675244 -0.028800956134174053 0.065687194587505146 -0.099999981003543112
leaf_weight=20.475115209817886 17.245730668306354 231.35436761379242 131.00756913423538 12.523840665817259 144.61171659827232 25.313316076993942 44.099077075719833 77.092275679111481 98.983865082263947 59.364051043987274 29.522696405649185 56.383546739816666 101.07241541147232 12.240696758031843 38.539011240005493 29.056460946798325 195.72459468245506 33.077747106552124 5.2631647288799277 97.744487822055817 106.69751527905464 44.862213641405106 131.16890355944633 185.41887640953064 757.51498338580132 27.023931413888931 233.23957857489586 23.713254332542419 18.472601383924484 235.53649219870567 54.95907261967659 18.295763105154037 21.978876560926437 23.050170123577118 171.94154104590416 38.935210049152374 8.7719412147998828 8.765687942504881 160.88344609737396 48.911510199308395 17.24948263168335 18.295763105154037 129.90576386451721 91.475063562393188 72.670542746782303 69.457912713289261 12.531344592571257 31.981440454721451 10.733183443546297 11.775711953639982 25.25203400850296 11.027583241462709 19.238239258527756 94.211948901414871 30.552718371152878 11.978813976049425 28.070211887359619 227.01616987586021 18.031379014253616 28.020185708999634 49.668393492698669 7.5188067555427542
leaf_count=82 69 927 525 50 577 101 176 309 395 238 118 225 405 49 154 116 781 132 21 390 427 179 525 740 3033 108 933 95 74 942 220 73 88 92 689 156 35 35 644 196 69 73 520 365 290 278 50 128 43 47 101 44 77 376 122 48 112 910 72 112 199 30
internal_value=1.99463e-08 0.0271449 -0.00643947 -0.0305203 -0.0142197 -0.0297717 0.027671 -0.00761368 -0.0256931 0.0342928 -0.0428205 -0.0169519 0.00299852 -0.0276591 -0.0172917 -0.0378251 -0.0813701 -0.0373994 0.00581524 -0.0144491 -0.0487852 -0.0157555 0.00904111 -0.00149331 0.0166782 -0.0156324 -0.0292986 0.0142378 0.0564966 0.0207743 0.0354438 -0.00263903 0.0457785 0.000865155 0.0606797 0.0466973 -0.0010631 0.00891978 0.0080744 0.0382482 -0.0051797 -0.0508898 0.0226457 -0.0840061 -0.0721124 0.00604807 -0.0363517 0.0140912 0.0259414 -0.0065348 -0.0430611 0.00949579 -0.0209005 -0.0745173 -0.0405601 0.0618565 0.0501499 0.0736723 -0.0135789 0.003874 0.0468639 -0.00435925
internal_weight=4797.5 919.875 3877.62 1091.83 826.794 602.949 223.845 458.337 381.245 84.6774 296.568 197.584 2785.79 234.412 403.424 226.214 265.039 69.3148 2551.38 350.377 249.304 151.56 2201 925.035 1275.97 518.453 387.284 36.2371 179.746 739.616 343.196 73.2548 269.941 67.2485 202.692 44.1984 30.7508 177.21 396.42 97.4068 268.785 35.5452 138.671 118.499 126.979 99.235 29.7771 141.2 111.678 43.7572 54.3085 48.7384 30.2658 137.005 42.7934 516.451 259.425 257.026 30.0102 48.4953 67.9204 18.252
internal_count=19190 3682 15508 4364 3306 2410 896 1833 1524 339 1185 790 11144 937 1613 904 1058 277 10207 1401 996 606 8806 3700 5106 2073 1548 145 720 2960 1374 293 1081 269 812 177 123 709 1586 390 1075 142 555 473 507 397 119 565 447 175 217 195 121 547 171 2069 1039 1030 120 194 272 73
is_linear=0
shrinkage=1


Tree=1
num_leaves=63
num_cat=0
split_feature=1 5 5 1 2 6 6 1 1 1 1 1 2 6 2 6 2 4 6 2 6 2 2 6 6 2 6 6 0 1 5 1 1 5 5 5 5 6 2 5 5 5 6 6 5 2 6 5 7 6 5 2 6 6 2 6 6 1 5 1 5 5
split_gain=303.111 513.08 318.792 327.523 194.883 347.538 290.373 264.525 137.075 235.619 149.914 178.354 86.9488 261.774 78.4846 123.108 65.7641 73.2765 60.2696 368.349 152.833 163.675 63.944 663.681 329.836 92.4535 198.469 56.4584 55.4824 47.5654 51.0302 83.6244 60.6078 98.2566 48.4826 44.7001 43.3832 42.409 40.5418 38.5339 32.2955 30.0477 29.9954 29.5237 29.0702 27.628 31.7437 27.1127 27.0866 26.0265 31.1934 25.8906 256.593 94.2381 62.6516 25.5465 41.1225 24.8211 36.1517 27.6838 56.6772 49.421
threshold=13.500000000000002 13.500000000000002 13.500000000000002 10.500000000000002 408.00000000000006 286.7351973684211 440.89235294117651 7.5000000000000009 2.5000000000000004 1.5000000000000002 4.5000000000000009 5.5000000000000009 222.50000000000003 497.52173913043481 346.50000000000006 522.16304347826099 422.50000000000006 4.5000000000000009 482.88949579831939 408.00000000000006 381.29166666666669 705.00000000000011 667.50000000000011 792.46904761904773 759.75245098039227 705.00000000000011 561.35833333333346 228.29447115384619 6.5000000000000009 5.5000000000000009 10.500000000000002 3.5000000000000004 3.5000000000000004 3.5000000000000004 3.5000000000000004 2.0000000000000004 4.5000000000000009 276.92780748663102 1060.0000000000002 5.5000000000000009 4.5000000000000009 3.5000000000000004 381.29166666666669 810.71339950372214 4.5000000000000009 200.50000000000003 414.796551724138 3.5000000000000004 21.500000000000004 582.70175438596505 3.5000000000000004 346.50000000000006 561.35833333333346 381.29166666666669 418.00000000000006 212.20500000000001 286.7351973684211 11.500000000000002 10.500000000000002 4.5000000000000009 4.5000000000000009 4.5000000000000009
decision_type=2 2 2 2 2 2 2 2 2 2 2 2 2 2 2 2 2 2 2 2 2 2 2 2 2 2 2 2 2 2 2 2 2 2 2 2 2 2 2 2 2 2 2 2 2 2 2 2 2 2 2 2 2 2 2 2 2 2 2 2 2 2
left_child=2 14 12 4 6 -6 28 8 9 -7 -10 48 13 37 15 45 17 27 19 -14 -21 -22 23 29 25 -24 41 -5 -4 30 32 -32 33 -20 35 -34 -16 -1 -28 -31 -40 -27 -38 -25 47 46 -2 -17 -12 50 -15 52 -3 54 -53 -30 -57 59 -59 61 -61 -26
right_child=1 51 3 16 5 7 -8 -9 10 -11 11 -13 18 49 36 44 -18 -19 22 20 21 -23 24 43 57 26 38 -29 55 39 31 -33 34 -35 -36 -37 42 -39 40 -41 -42 -43 -44 -45 -46 -47 -48 -49 -50 -51 -52 53 -54 -55 -56 56 -58 58 -60 60 -62 -63
leaf_value=0.064365193734074497 0.0094026784500714188 0.06502643019008171 0.073284806411726175 -0.072406758389273101 -0.095330451951435871 -0.095241870745890828 -0.091043042104537578 0.077837008457012871 -0.089938351765310551 0.087164061632927253 -0.027687280565226898 -0.08948706382690097 0.066815481378330044 0.028872892172875017 -0.038461681378789858 -0.073914656770408413 -0.092315351312103458 -0.089470962407221646 0.046833436391703821 -0.095241870745890828 0.018684527256140872 -0.095241870745890828 0.022446713326342668 -0.037583733338406734 0.060884544337224955 -0.033644674566585805 0.0038973032230677101 0.058911278958686676 0.056383048185754139 -0.0044306288646613675 0.028289976338667561 -0.095241870745890828 0.039062015190658189 -0.08238725312901761 0.068870207379610582 -0.095241870745890786 -0.068061885935702657 -0.002541510925997156 -0.0031662052066268303 0.027521259230243064 -0.095754458050915189 -0.093676273794953316 0.027557648668525572 -0.090905287720806166 -0.089331710317053822 0.023017305836576112 -0.095241870745890828 -0.0030591890161787037 0.025425971826952495 -0.085620387199395243 -0.065613960636000251 0.070353259335273532 -0.095241870745890828 0.080500560773868635 -0.083781054270692559 -0.0952418707458908 0.026551331496428444 0.027119553892692147 0.075707264534733865 -0.013234289323290838 0.036077750525288207 0.018357639559630563
leaf_weight=56.59807026386261 17.245308190584186 231.08422939479351 125.58623668551445 12.505724132061003 145.75249654054642 25.250138461589813 41.76648935675621 76.963476598262787 98.763407558202744 59.239820122718811 30.263917207717896 57.50702466070652 100.94783999025822 12.237871825695036 38.523237287998199 29.012667000293732 195.26547187566757 33.004835307598114 43.392185032367706 97.500534653663635 106.68719989061356 44.75024539232254 134.64882817864418 30.736319169402122 172.41419532895088 27.015464350581169 255.71481716632843 23.69051630795002 18.456372275948524 228.27486944198608 54.946896195411682 18.250100076198578 21.220413744449615 22.256132960319519 168.47789259254932 8.750047981739046 8.7544786185026151 40.726934656500816 18.001074343919754 160.84971475601196 19.753295838832855 91.2541543841362 129.8784499168396 167.05785048007965 72.510850951075554 69.447722479701042 12.50006854534149 25.251968517899513 116.0555907189846 94.021679595112801 30.516398757696152 11.46447539329529 28.000153541564941 229.59850618243217 15.515081048011778 11.000060319900514 18.734187394380569 65.677550733089447 91.787198692560196 81.492360681295395 204.47862106561661 113.14998158812523
leaf_count=227 69 927 504 50 583 101 167 309 395 238 121 230 405 49 154 116 781 132 174 390 427 179 539 123 691 108 1023 95 74 913 220 73 85 89 676 35 35 163 72 644 79 365 520 668 290 278 50 101 465 376 122 46 112 922 62 44 75 263 368 326 819 453
internal_value=-5.51124e-07 0.0258186 -0.00612498 -0.0290498 -0.0135336 -0.0279785 0.0273328 -0.00682379 -0.023657 0.0326514 -0.0393795 -0.0148814 0.00285034 -0.0263121 -0.0164403 -0.0359745 -0.0774723 -0.0355895 0.00552812 -0.0137472 -0.0464165 -0.0149811 0.0085942 -0.00142038 0.0158513 -0.0135192 -0.0252809 0.0135412 0.0557838 0.020689 0.0344314 -0.00251004 0.0446701 0.00302496 0.0584467 -0.000148774 0.00847631 0.0363672 -0.00324349 0.0087771 -0.0516089 -0.0799637 0.0215194 -0.0826194 -0.0686192 0.00574759 -0.0345727 -0.0409422 0.0144403 -0.0709126 -0.0385683 0.058855 0.0477057 0.0701132 -0.0182845 0.0101758 -0.0185056 0.0378646 0.0554416 0.0330219 0.0220254 0.044034
internal_weight=4792.18 918.787 3873.39 1089.81 825.339 609.796 215.543 464.043 387.08 84.49 302.59 203.827 2783.59 234.101 403.125 225.969 264.467 69.2011 2549.49 349.886 248.938 151.437 2199.6 924.212 1275.39 546.388 411.739 36.1962 173.777 726.418 337.294 73.197 264.097 65.6483 198.448 29.9705 177.156 97.325 293.469 389.125 37.7544 118.27 138.633 197.794 126.775 99.1931 29.7454 54.2646 146.32 136.776 42.7543 515.662 259.084 256.578 26.9796 48.1906 29.7342 729 157.465 571.535 285.971 285.564
internal_count=19190 3682 15508 4364 3306 2442 864 1859 1550 339 1211 816 11144 937 1613 904 1058 277 10207 1401 996 606 8806 3700 5106 2186 1647 145 697 2909 1352 293 1059 263 796 120 709 390 1174 1557 151 473 555 791 507 397 119 217 586 547 171 2069 1039 1030 108 193 119 2920 631 2289 1145 1144
is_linear=0
shrinkage=0.05


Tree=2
num_leaves=63
num_cat=0
split_feature=1 5 5 1 2 6 6 1 1 1 1 1 2 6 2 6 2 4 6 2 6 2 2 6 6 2 6 6 0 1 5 1 1 5 5 5 1 5 5 1 2 5 5 6 6 7 6 6 6 5 2 6 6 2 6 5 5 6 1 5 4 6
split_gain=274.525 465.281 289.306 297.751 177.004 309.106 248.771 235.712 127.476 208.716 132.237 160.495 78.7279 237.349 71.094 112.633 59.9984 66.603 54.5527 333.789 139.446 148.766 57.7736 601.929 298.147 93.7953 167.899 51.2986 48.5911 43.2082 46.2593 75.9211 54.9344 89.0394 43.9579 40.5669 40.4904 39.1924 35.32 73.4882 27.7749 30.186 27.6219 27.1299 27.1166 24.171 24.1326 35.6977 23.8016 28.2573 23.6498 244.46 104.112 44.2578 23.6239 22.9193 26.1656 22.0323 21.0874 37.3008 26.7511 25.138
threshold=13.500000000000002 13.500000000000002 13.500000000000002 10.500000000000002 428.50000000000006 368.81944444444451 447.69981060606068 7.5000000000000009 2.5000000000000004 1.5000000000000002 4.5000000000000009 5.5000000000000009 222.50000000000003 497.52173913043481 346.50000000000006 500.40814393939399 422.50000000000006 4.5000000000000009 482.88949579831939 408.00000000000006 381.29166666666669 705.00000000000011 667.50000000000011 792.46904761904773 739.71875000000011 705.00000000000011 561.35833333333346 234.48844537815128 6.5000000000000009 5.5000000000000009 10.500000000000002 3.5000000000000004 3.5000000000000004 3.5000000000000004 3.5000000000000004 2.0000000000000004 11.500000000000002 4.5000000000000009 4.5000000000000009 8.5000000000000018 1060.0000000000002 4.5000000000000009 3.5000000000000004 381.29166666666669 810.71339950372214 15.500000000000002 212.20500000000001 286.7351973684211 582.70175438596505 3.5000000000000004 399.50000000000006 561.35833333333346 368.81944444444451 418.00000000000006 263.4929824561404 4.5000000000000009 3.5000000000000004 929.0584677419356 11.500000000000002 10.500000000000002 5.5000000000000009 929.0584677419356
decision_type=2 2 2 2 2 2 2 2 2 2 2 2 2 2 2 2 2 2 2 2 2 2 2 2 2 2 2 2 2 2 2 2 2 2 2 2 2 2 2 2 2 2 2 2 2 2 2 2 2 2 2 2 2 2 2 2 2 2 2 2 2 2
left_child=2 14 12 4 6 -6 28 8 9 -7 -10 -12 13 36 15 45 17 27 19 -14 -21 -22 23 29 25 -24 42 -5 -4 30 32 -32 33 -20 35 -34 54 -16 39 -31 -28 -42 -27 -39 -25 -2 -30 -48 49 -15 51 -3 53 -52 -1 56 -17 -58 61 60 -60 -26
right_child=1 50 3 16 5 7 -8 -9 10 -11 11 -13 18 48 37 55 -18 -19 22 20 21 -23 24 44 58 26 40 -29 46 38 31 -33 34 -35 -36 -37 -38 43 -40 -41 41 -43 -44 -45 -46 -47 47 -49 -50 -51 52 -53 -54 -55 -56 -57 57 -59 59 -61 -62 -63
leaf_value=0.046322964393529981 -0.085220110078021646 0.062501265074980647 0.067191866122572719 -0.064423916699481623 -0.088880708581425161 -0.091131784162966495 -0.081720494958229792 0.074605440663174469 -0.085889625841244335 0.084025711557075389 0.014472941893239133 -0.086188746246790904 0.063699839433056668 0.027447414416917129 -0.036581546489264309 -0.071067358909980186 -0.088293321133130681 -0.08553794780956657 0.044569233224213613 -0.091131784162966495 0.017755221093256165 -0.091131784162966495 0.022372334439046525 -0.035752020352332964 0.023178476606571238 -0.031991190762518808 0.0015022311892588633 0.058868617258209625 0.053699180799342931 -0.099471579800047713 0.0268925695489537 -0.091131784162966495 0.03715191317823676 -0.0786914713036376 0.065671679607723465 -0.091131784162966467 0.066784180514804045 -0.064896758891141618 0.017982516834917969 0.0040858949939856469 0.0012975407537342517 -0.091110703994950054 -0.089612846031027316 0.026195561144712672 -0.086906188711811119 0.018824171025031235 -0.091131784162966467 0.022058998543032907 -0.081813082760730862 -0.062546466044122159 0.064584643179226117 -0.091749905307958346 0.07722625787951698 -0.089379129770048818 -0.025431742568407797 -0.078658391212625856 0.015472906815079549 -0.099687016918839993 0.066083136174155524 0.072135337550607331 0.0013914050277546346 0.044740713157462059
leaf_weight=18.666127189993858 6.0103549361228934 237.52191582322121 130.32153426110744 13.45140093564987 151.2032123208046 24.080594748258591 43.755850836634636 75.115226224064827 96.407644703984261 57.901703238487244 138.75701084733009 55.411047697067261 100.59923015534878 12.229957371950148 38.479046672582626 29.391123995184898 193.98237399756908 32.801032721996307 43.318489640951157 96.81888610124588 106.65829491615295 44.437386184930801 131.095987200737 30.696458026766777 386.20512574911118 26.991745561361313 233.23769488930702 22.630502164363861 18.410939231514931 21.05206561088562 54.912777587771416 18.122509449720383 21.196414679288864 22.139072611927986 167.86377258598804 8.6888743937015551 48.736136168241501 8.7231115996837598 275.98452538251877 91.989227652549744 17.249466180801392 18.121604412794113 90.636829242110252 129.80192708969116 166.03183782100677 78.344399094581604 10.923156380653383 19.225509434938431 93.489712402224541 30.414758458733559 6.9528921246528652 28.800055086612701 225.98120872676373 14.200826078653334 29.756946429610252 82.292389661073685 24.231639787554744 5.012488365173339 24.43175333738327 91.521440386772156 46.196232229471207 207.95407478511333
leaf_count=75 24 956 525 54 609 97 176 303 388 234 556 223 405 49 154 118 781 132 174 390 427 179 525 123 1548 108 933 91 74 84 220 73 85 89 676 35 196 35 1105 368 69 73 365 520 668 314 44 77 376 122 28 116 912 57 119 331 97 20 98 368 185 834
internal_value=-2.44556e-06 0.0246107 -0.00583889 -0.0277409 -0.0129203 -0.0270712 0.0251445 -0.00619486 -0.0224858 0.0325768 -0.0380211 -0.0142536 0.00271217 -0.025087 -0.015654 -0.0342855 -0.0740586 -0.0339721 0.0052613 -0.0131158 -0.0442862 -0.0142686 0.0081783 -0.00135435 0.015079 -0.014171 -0.0265744 0.0129049 0.0512846 0.0196865 0.0328135 -0.00239324 0.0425828 0.00287997 0.0557249 -0.000145398 0.0346102 0.00805919 0.00834051 -0.0152 -0.00475902 -0.0460458 -0.0763906 0.0204594 -0.0789244 0.0114109 0.00859359 -0.0189511 -0.0676929 -0.0367374 0.0561576 0.0458205 0.0672971 -0.0387737 0.00222826 -0.0616379 -0.0377503 -0.00426568 0.0350867 0.0510685 0.0237697 0.0307252
internal_weight=4777.57 915.743 3861.82 1084.38 821.513 598.876 222.637 447.673 372.558 81.9823 290.576 194.168 2777.45 233.294 402.286 225.282 262.865 68.8829 2544.15 348.514 247.915 151.096 2195.64 921.996 1273.64 517.333 386.237 36.0819 178.881 725.268 336.242 73.0353 263.207 65.4576 197.749 29.8853 97.1592 177.004 389.026 113.041 268.609 35.3711 117.629 138.525 196.728 84.3548 48.5596 30.1487 136.134 42.6447 513.457 266.322 247.135 21.1537 48.4231 140.928 58.6353 29.2441 756.309 162.149 70.628 594.159
internal_count=19190 3682 15508 4364 3306 2410 896 1801 1498 331 1167 779 11144 937 1613 904 1058 277 10207 1401 996 606 8806 3700 5106 2073 1548 145 720 2909 1352 293 1059 263 796 120 390 709 1557 452 1075 142 473 555 791 338 195 121 547 171 2069 1072 997 85 194 566 235 117 3033 651 283 2382
is_linear=0
shrinkage=0.05


Tree=3
num_leaves=63
num_cat=0
split_feature=1 5 5 1 1 1 6 1 1 1 0 1 2 2 6 2 6 6 6 2 4 4 6 2 6 2 2 6 6 2 6 6 6 1 5 1 1 5 2 1 5 5 5 5 6 2 2 6 5 5 2 6 5 5 6 1 5 2 6 6 2 6
split_gain=249.094 423.088 263.306 271.812 162.946 212.456 112.546 89.029 216.741 153.039 87.4342 78.9992 97.0571 71.4237 215.773 64.4618 103.3 59.9753 57.8758 55.0835 60.7814 50.6627 49.458 303.155 128.009 135.751 52.2286 550.507 270.195 75.5657 164.656 51.5418 46.6596 36.9951 44.1165 54.6855 36.8063 35.4259 33.8387 33.1495 48.1791 43.8232 41.7722 33.0147 30.6219 60.6639 39.6851 62.0669 28.0323 27.1609 26.8713 29.9325 26.7277 25.6509 24.568 23.4544 22.1584 21.7777 211.347 78.4147 42.5089 21.5881
threshold=13.500000000000002 13.500000000000002 13.500000000000002 10.500000000000002 1.0000000180025095e-35 7.5000000000000009 234.48844537815128 2.5000000000000004 1.5000000000000002 4.5000000000000009 6.5000000000000009 5.5000000000000009 418.00000000000006 222.50000000000003 497.52173913043481 346.50000000000006 527.45000000000016 381.29166666666669 431.04793028322445 422.50000000000006 4.5000000000000009 5.5000000000000009 482.88949579831939 408.00000000000006 381.29166666666669 705.00000000000011 667.50000000000011 773.2619815668204 759.75245098039227 705.00000000000011 561.35833333333346 810.71339950372214 228.29447115384619 5.5000000000000009 12.000000000000002 3.5000000000000004 11.500000000000002 4.5000000000000009 1060.0000000000002 3.5000000000000004 3.5000000000000004 10.500000000000002 3.5000000000000004 2.0000000000000004 622.13750000000016 692.50000000000011 765.00000000000011 729.13437500000009 4.5000000000000009 4.5000000000000009 200.50000000000003 414.796551724138 5.5000000000000009 3.5000000000000004 381.29166666666669 11.500000000000002 3.5000000000000004 346.50000000000006 561.35833333333346 402.18736383442274 418.00000000000006 248.3928571428572
decision_type=2 2 2 2 2 2 2 2 2 2 2 2 2 2 2 2 2 2 2 2 2 2 2 2 2 2 2 2 2 2 2 2 2 2 2 2 2 2 2 2 2 2 2 2 2 2 2 2 2 2 2 2 2 2 2 2 2 2 2 2 2 2
left_child=2 15 13 4 17 6 -6 8 -8 -9 -7 44 21 14 36 16 50 -4 -12 20 32 -13 23 -15 -25 -26 27 33 29 -28 53 -29 -5 34 39 -36 61 -17 -32 40 -24 -42 43 -41 45 -11 47 -46 56 -40 51 -2 -35 -31 -39 -16 -18 58 -3 60 -59 -1
right_child=1 57 3 19 5 10 7 9 -10 11 18 12 -14 22 55 37 48 -19 -20 -21 -22 -23 26 24 25 -27 28 31 -30 30 38 -33 -34 52 35 -37 -38 54 49 42 41 -43 -44 -45 46 -47 -48 -49 -50 -51 -52 -53 -54 -55 -56 -57 -58 59 -60 -61 -62 -63
leaf_value=0.052222396968655341 0.0087512448916556539 0.059168018179151863 0.084829563747877409 -0.066243964478491138 -0.081641032945412889 0.050934804872507733 -0.087567421300266013 -0.083281339664594931 0.075854561066863085 0.012357938896205341 0.011889254117573076 0.084188526709115183 -0.082790860673392419 0.060848517145671549 -0.080480758170481337 -0.034815793593940665 -0.067030303470003313 -0.041536675361601293 -0.087420177045461345 -0.084764698532162897 -0.082066991583063575 -0.084135935637900186 0.050278395506404394 -0.087549101565448817 0.016874705102940517 -0.087549101565448817 0.020233309343509014 -0.030515493789866673 0.034305029743040151 -0.030433992985072864 0.0035346487027323476 -0.083387216530078453 0.053662574649141363 -0.0013902997379132585 0.023276523672305274 -0.087549101565448817 0.063768836350129962 -0.062004713842337217 -0.0031185053062609456 0.037048595792513482 -0.074744758039939838 0.043640731624122131 0.06211111840934197 -0.087549101565448803 0.051501327724524863 -0.088498500644346417 0.049367739712713174 -0.096860744618375988 -0.084854606945899108 -0.088367000820866931 0.021145010083871971 -0.090894575363500901 0.025680548373907028 -0.086058403168848455 0.024909048128712613 -0.037136171152551009 -0.0025393364347977023 0.061109955369191837 -0.087525897187573629 0.074243074504595372 -0.061080795399809276 -0.020157195009799483
leaf_weight=14.882989525794981 17.237655282020572 229.14893777668476 54.490705549716949 12.382943034172056 103.73787665367126 125.3583802729845 30.696849882602692 112.92125602066517 59.839996680617332 51.742009177803993 46.356787472963333 16.273499727249149 64.464542731642723 100.06080687046051 86.23053053021431 38.410739153623581 28.204163581132889 11.344527542591093 21.463623955845833 192.00308614969254 32.486603796482086 6.1633044481277457 40.949035853147507 95.767559409141541 106.61359107494354 43.954854190349579 134.50594279170036 64.050857111811638 726.72379073500633 26.955076470971107 255.69570438563824 164.42575669288635 23.530012607574463 211.70324531197548 41.396755218505859 15.224586367607115 48.494479119777679 8.6746688932180387 18.000711619853973 13.9392329454422 20.971416443586349 12.462569981813429 164.67301750183105 8.5945245623588562 14.187339231371881 20.944741159677505 61.773677676916122 14.011511862277983 68.73404349386692 19.427801907062531 71.605562165379524 13.391082912683485 160.16004914045334 89.684632405638695 129.6836040019989 48.913774088025093 25.237560838460922 11.85317997634411 27.500058650970459 223.71694025397301 17.816364645957947 33.470082893967628
leaf_count=60 69 927 221 50 422 509 125 459 244 208 187 66 262 405 349 154 114 46 87 781 132 25 165 390 427 179 539 257 2920 108 1023 668 95 847 166 62 196 35 72 56 85 50 667 35 57 84 248 56 279 79 287 54 642 365 520 198 101 48 112 910 72 134
internal_value=-5.26593e-06 0.0234991 -0.00557679 -0.0265633 -0.0123661 -0.0189871 -0.0346633 -0.0239058 0.0204457 -0.0349834 0.0261928 -0.0131295 -0.051617 0.00258276 -0.0239723 -0.0149163 -0.0327046 0.0630545 -0.0195399 -0.0710391 -0.0325103 0.0379504 0.00501205 -0.0125433 -0.0423547 -0.0136093 0.00778939 -0.0012944 0.0143543 -0.0122845 -0.0229585 -0.0685652 0.0123183 0.0209783 0.0334932 -0.00652274 0.03299 0.00766607 -0.00296501 0.0421547 0.0139175 -0.0306164 0.0533742 -0.0104738 0.00743256 -0.0167039 0.0269319 -0.0222172 -0.0637362 -0.0473679 0.00437989 -0.0348146 0.010269 -0.0732038 0.0194598 -0.0647927 -0.0365748 0.0537156 0.0434497 0.0641137 -0.0122648 0.00212111
internal_weight=4755.32 911.215 3844.11 1076.17 815.771 749.935 556.757 453.019 90.5368 362.482 193.179 249.561 86.9013 2767.93 231.992 401.179 224.41 65.8352 67.8204 260.403 68.3996 22.4368 2535.94 346.397 246.336 150.568 2189.54 918.551 1270.99 544.27 409.764 228.477 35.913 690.074 318.211 56.6213 96.8476 176.769 293.124 261.59 74.383 33.434 187.207 22.5338 162.659 72.6868 89.9725 28.1989 122.176 37.4285 102.234 30.6287 371.863 116.64 138.358 135.144 53.4417 510.035 256.649 253.386 29.6695 48.3531
internal_count=19190 3682 15508 4364 3306 3039 2256 1834 369 1465 783 1006 353 11144 937 1613 904 267 274 1058 277 91 10207 1401 996 606 8806 3700 5106 2186 1647 925 145 2775 1286 228 390 709 1174 1058 300 135 758 91 653 292 361 113 494 151 410 123 1489 473 555 547 215 2069 1039 1030 120 194
is_linear=0
shrinkage=0.05


Tree=4
num_leaves=63
num_cat=0
split_feature=1 5 5 1 1 1 6 1 1 1 0 1 2 2 6 2 6 6 6 2 4 4 6 2 6 2 2 6 6 2 6 6 6 6 1 5 1 5 5 2 1 5 5 5 5 6 2 2 6 5 5 5 5 6 7 6 1 5 1 5 1 5
split_gain=226.396 385.583 240.062 249.203 148.454 193.505 103.035 81.0225 198.131 140.675 79.335 72.2739 88.7977 64.8499 197.093 58.5922 94.4467 54.9427 52.9416 50.831 55.6574 46.224 44.8975 275.867 118.133 124.305 47.2284 501.098 244.465 68.4464 150.904 48.2227 44.0768 42.5312 33.8749 40.1522 49.9953 32.0363 31.7397 30.7721 30.2045 43.7184 39.9508 37.9954 30.1659 27.7159 55.1167 35.9092 56.2993 26.7612 25.0676 24.1589 24.0283 22.2714 22.0463 21.3279 21.2209 26.6999 20.6813 30.1138 25.2552 51.3196
threshold=13.500000000000002 13.500000000000002 13.500000000000002 10.500000000000002 1.0000000180025095e-35 7.5000000000000009 234.48844537815128 2.5000000000000004 1.5000000000000002 4.5000000000000009 6.5000000000000009 5.5000000000000009 418.00000000000006 222.50000000000003 458.83257575757585 346.50000000000006 500.40814393939399 447.69981060606068 431.04793028322445 422.50000000000006 4.5000000000000009 5.5000000000000009 482.88949579831939 408.00000000000006 381.29166666666669 705.00000000000011 667.50000000000011 773.2619815668204 759.75245098039227 705.00000000000011 561.35833333333346 810.71339950372214 582.70175438596505 234.48844537815128 5.5000000000000009 12.000000000000002 3.5000000000000004 4.5000000000000009 3.5000000000000004 1060.0000000000002 3.5000000000000004 3.5000000000000004 10.500000000000002 3.5000000000000004 2.0000000000000004 622.13750000000016 692.50000000000011 765.00000000000011 729.13437500000009 10.500000000000002 4.5000000000000009 5.5000000000000009 3.5000000000000004 381.29166666666669 15.500000000000002 458.83257575757585 12.500000000000002 12.000000000000002 11.500000000000002 10.500000000000002 4.5000000000000009 4.5000000000000009
decision_type=2 2 2 2 2 2 2 2 2 2 2 2 2 2 2 2 2 2 2 2 2 2 2 2 2 2 2 2 2 2 2 2 2 2 2 2 2 2 2 2 2 2 2 2 2 2 2 2 2 2 2 2 2 2 2 2 2 2 2 2 2 2
left_child=2 15 13 4 17 6 -6 8 -8 -9 -7 45 21 14 -1 16 54 -4 -12 20 33 -13 23 55 -25 -26 27 34 29 -28 52 -29 38 -5 35 40 -37 -17 -16 -32 41 -24 -43 44 -42 46 -11 48 -47 -40 -41 -36 -31 -39 -2 -15 57 -53 60 -60 -30 -62
right_child=1 -3 3 19 5 10 7 9 -10 11 18 12 -14 22 32 37 -18 -19 -20 -21 -22 -23 26 24 25 -27 28 31 58 30 39 -33 -34 -35 51 36 -38 53 49 50 43 42 -44 -45 -46 47 -48 -49 -50 -51 -52 56 -54 -55 -56 -57 -58 -59 59 -61 61 -63
leaf_value=0.047948512490418843 -0.081758830996018092 0.051484510537335396 0.075566356127797232 -0.059125978313506168 -0.078462739747991228 0.048630705041481606 -0.084417656048331319 -0.080171531748276501 0.072856307576569454 0.011741893023881513 0.011297094242978686 0.080864163230416924 -0.079686952090626872 0.068910897904568336 0.037541343553325272 -0.033153436700266624 -0.056590331037487208 -0.079054798023228762 -0.084079979563874516 -0.081643798457389435 -0.078978613794253028 -0.080709770066365705 0.047978359510617685 -0.084401503274061276 0.01603991932138903 -0.084401503274061276 0.019237574142461696 -0.029015753123682899 0.038789599749584146 -0.02896471806436491 0.003358003705770907 -0.080265199295001297 -0.075871784820536733 0.053798983100257228 -0.0013207923501443737 0.022138174449014461 -0.084401503274061276 -0.059344940445230338 -0.07326135167856522 -0.0029625790348576605 0.035285137868142379 -0.071782963311879042 0.041557677307082541 0.05943836833956654 -0.084401503274061263 0.049033452346205424 -0.08460668092711171 0.047018515075243975 -0.092539069876134805 -0.0019934674480632424 -0.085129950095910983 0.041965691220051428 -0.082924219104242067 0.023692358123665425 0.0176152218698627 0.0080169914333814343 0.039309762204060246 -0.024014262220484923 0.022929272490673482 0.067432147619981495 -0.015845169317802728 0.031137530613208699
leaf_weight=68.806624799966812 6.0102488100528708 505.63513721525669 58.863887712359428 13.279926329851149 102.57193423807621 124.74821598827839 30.260929971933365 111.47240142524242 59.203337863087654 51.734051436185837 46.347564920783043 16.099673330783848 63.647092029452324 81.922016888856888 16.456898182630539 38.32209724187851 138.90525242686272 6.366696670651435 21.206826716661453 189.43924123048782 32.079256236553192 6.1051204502582541 40.770935624837875 94.405941814184189 106.55556860566139 43.32990662753582 134.39729857444763 63.994734048843384 284.07735842466354 26.90748704969883 255.68935069441795 162.3323375582695 91.782932311296463 22.406721591949463 211.70198825001717 41.350282311439514 15.008124083280562 8.6118561029434186 29.905603498220444 18.000719040632248 13.904943227767944 20.750385448336601 12.433596581220625 163.50318822264671 8.4723281115293503 14.157038614153864 20.815791875123978 61.620807573199272 13.934308990836142 23.541115522384644 19.164739072322845 25.406386971473694 88.451303645968437 129.53003692626953 78.190472215414047 17.440622821450233 95.90300440788269 38.671332001686096 65.433047398924828 90.710232764482498 81.354155167937279 203.54183977842331
leaf_count=279 24 2069 241 54 422 509 125 459 244 208 187 66 262 334 66 154 566 26 87 781 132 25 165 390 427 179 539 257 1144 108 1023 668 376 91 847 166 62 35 121 72 56 85 50 667 35 57 84 248 56 95 79 102 365 520 314 71 385 155 263 368 326 819
internal_value=-8.77488e-06 0.0224755 -0.00533335 -0.0254778 -0.0118502 -0.018192 -0.0332484 -0.0229206 0.019659 -0.0335143 0.0249977 -0.0125522 -0.0496518 0.00246078 -0.0229274 -0.0142339 -0.031262 0.0604749 -0.0186439 -0.0683495 -0.0311854 0.03644 0.00477778 -0.0120203 -0.0405907 -0.0129964 0.00742348 -0.00123901 0.0136703 -0.0117116 -0.0219011 -0.0657742 -0.053089 0.0117767 0.0199946 0.0320245 -0.00623312 0.00729493 -0.0231753 -0.00282125 0.0403226 0.0132961 -0.0293157 0.0510754 -0.0100298 0.00707695 -0.0159022 0.0256601 -0.0211916 -0.0418707 -0.045333 0.00976059 -0.0703381 0.0185158 0.0105219 0.0582225 0.0244246 0.00214635 0.0326638 0.0487829 0.0282403 0.0177213
internal_weight=4727.64 905.205 3822.44 1066.36 809.156 743.925 551.622 449.051 89.4643 359.586 192.303 248.114 85.8519 2756.08 230.493 399.57 223.106 65.2306 67.5544 257.205 67.7659 22.2048 2525.59 343.654 244.291 149.885 2181.93 914.204 1267.73 542.611 408.214 226.327 161.687 35.6866 687.876 316.194 56.3584 176.464 69.9036 292.855 259.835 73.9549 33.184 185.88 22.3773 162.262 72.5498 89.7122 28.0913 53.4467 37.1655 371.683 115.359 138.142 84.2007 99.3626 159.981 64.0777 725.117 156.143 568.973 284.896
internal_count=19190 3682 15508 4364 3306 3039 2256 1834 369 1465 783 1006 353 11144 937 1613 904 267 274 1058 277 91 10207 1401 996 606 8806 3700 5106 2186 1647 925 658 145 2775 1286 228 709 282 1174 1058 300 135 758 91 653 292 361 113 216 151 1489 473 555 338 405 642 257 2920 631 2289 1145
is_linear=0
shrinkage=0.05


Tree=5
num_leaves=63
num_cat=0
split_feature=1 5 5 1 1 1 6 1 1 1 0 1 2 2 6 2 6 6 6 2 4 4 6 2 6 2 2 6 6 2 6 6 6 1 1 5 1 5 5 1 5 5 5 5 6 2 2 6 2 6 5 5 1 2 6 6 2 2 5 5 6 6
split_gain=205.61 350.533 219.388 229.159 135.618 176.626 94.7129 72.8825 183.541 130.03 72.0618 67.5656 81.7918 58.9846 179.909 53.1879 87.6496 51.6463 48.5932 47.1356 51.1226 42.3 40.8111 251.48 109.523 114.173 42.741 456.967 221.819 70.4164 128.836 45.5327 38.8146 32.9766 31.1034 36.6099 45.8324 28.9823 28.877 27.5723 39.7181 36.4973 34.6164 27.6353 24.8901 52.1667 32.5273 51.256 24.661 27.6799 22.6763 21.8518 21.6656 20.4969 203.841 88.9191 37.1451 20.4851 23.8933 20.33 21.374 20.2079
threshold=13.500000000000002 13.500000000000002 13.500000000000002 10.500000000000002 1.0000000180025095e-35 7.5000000000000009 231.88440860215056 2.5000000000000004 1.5000000000000002 4.5000000000000009 6.5000000000000009 5.5000000000000009 418.00000000000006 222.50000000000003 497.52173913043481 346.50000000000006 529.31004140786763 381.29166666666669 431.04793028322445 422.50000000000006 4.5000000000000009 5.5000000000000009 482.88949579831939 408.00000000000006 381.29166666666669 705.00000000000011 667.50000000000011 773.2619815668204 739.71875000000011 705.00000000000011 561.35833333333346 817.52058823529421 228.29447115384619 11.500000000000002 5.5000000000000009 12.000000000000002 3.5000000000000004 4.5000000000000009 4.5000000000000009 3.5000000000000004 3.5000000000000004 10.500000000000002 3.5000000000000004 2.0000000000000004 622.13750000000016 692.50000000000011 765.00000000000011 729.13437500000009 200.50000000000003 414.796551724138 3.5000000000000004 5.5000000000000009 11.500000000000002 399.50000000000006 561.35833333333346 368.81944444444451 418.00000000000006 1060.0000000000002 4.5000000000000009 3.5000000000000004 929.0584677419356 381.29166666666669
decision_type=2 2 2 2 2 2 2 2 2 2 2 2 2 2 2 2 2 2 2 2 2 2 2 2 2 2 2 2 2 2 2 2 2 2 2 2 2 2 2 2 2 2 2 2 2 2 2 2 2 2 2 2 2 2 2 2 2 2 2 2 2 2
left_child=2 15 13 4 17 6 -6 8 -8 -9 -7 44 21 14 33 16 48 -4 -12 20 32 -13 23 -15 -25 -26 27 34 29 -28 50 -29 -5 -1 35 39 -37 -17 59 40 -24 -42 43 -41 45 -11 47 -46 49 -2 -31 -36 -16 54 -3 56 -55 -32 -59 -18 -61 -39
right_child=1 53 3 19 5 10 7 9 -10 11 18 12 -14 22 52 37 38 -19 -20 -21 -22 -23 26 24 25 -27 28 31 -30 30 57 -33 -34 -35 51 36 -38 61 -40 42 41 -43 -44 -45 46 -47 -48 -49 -50 -51 -52 -53 -54 55 -56 -57 -58 58 -60 60 -62 -63
leaf_value=0.00091395692788379546 0.0081631740305164093 0.054940876242297092 0.078719169469076367 -0.061064075114604238 -0.076342109397586719 0.046476237577682593 -0.081638276366884741 -0.077411616542186923 0.070134883072728124 0.011979911359290661 0.010735025809481749 0.077897766291589177 -0.076967176516451408 0.055799065871977797 -0.07501209984518023 -0.031585036596559583 -0.061764625466980222 -0.039395300162112942 -0.081119468218636803 -0.078863525386284147 -0.076210271763123394 -0.077646344164971945 0.04582898439040816 -0.081617124442347783 0.015248073553357073 -0.081617124442347783 0.019329997368932386 -0.029426926658733962 0.030333979169531084 -0.027576077659072468 0.0010825394093589907 -0.078279410788905268 0.049142325704508806 0.059502616876423955 -0.0012547626254885945 0.02105973718719955 -0.081617124442347783 -0.056884291275775323 -0.081866384254287827 0.033623470245304619 -0.069090314126805677 0.039605361852277747 0.056966209679362195 -0.081617124442347755 0.046737457699989798 -0.081183434509296978 0.044827436268633815 -0.088782953843794005 0.019170007684696979 -0.087071606368046589 -0.080140983366676771 0.02324133178967408 -0.033001242887999313 0.056944548034663589 -0.087067864758460817 0.069113127546283057 -0.085301967308190507 0.0015367311499552543 -0.081552754102432651 0.023259196862886463 -0.092390612620804502 0.022540398857358923
leaf_weight=48.154651075601578 17.218361139297489 233.04419933259487 53.227812230587006 12.172225296497343 98.5119618922472 124.02290551364422 30.219407260417938 110.22364953160286 58.444656357169151 52.221269711852074 46.335839986801147 15.882548689842226 63.389172896742821 98.518816366791725 84.325026035308838 38.216463983058929 27.472715139389038 11.202811807394026 20.889674112200737 186.38846111297607 31.594487369060516 6.0305497199296942 40.554401606321335 92.785912156105042 106.48640739917755 42.586354553699493 130.78001338243484 68.935830146074295 751.06702983379364 26.85077178478241 233.22801911830902 154.81101576983929 23.250623151659966 47.914090812206268 211.7006044536829 41.295778870582581 14.750580906867979 8.5370506346225721 64.747983813285828 13.863565325737 20.487748593091965 12.395137369632719 162.10410507023335 8.3269408345222473 14.1110175549984 21.096153929829597 61.406410992145538 13.800860822200773 73.655727848410606 13.700983971357344 86.983811676502228 159.73194777965546 48.249104619026184 6.8135615587234524 28.343057572841644 220.07822245359421 14.059497982263563 17.249285742640495 17.359632939100266 20.22688411176205 4.9785360693931571 129.34700632095337
leaf_count=194 69 956 221 50 411 509 127 461 244 210 187 66 265 405 349 154 113 46 87 781 132 25 165 390 427 179 525 278 3033 108 933 647 95 196 847 166 62 35 269 56 85 50 667 35 57 86 248 56 296 56 365 642 198 28 116 912 57 69 73 81 20 520
internal_value=-1.28697e-05 0.0214676 -0.0051083 -0.0244906 -0.0113801 -0.0174648 -0.0319642 -0.0221802 0.018406 -0.0322275 0.0238798 -0.0121403 -0.0481807 0.00234642 -0.0219672 -0.013576 -0.0298533 0.0581821 -0.0178079 -0.0659329 -0.0299702 0.0350916 0.0045587 -0.0115393 -0.038969 -0.0124239 0.0070809 -0.00118774 0.0130292 -0.0123332 -0.0231826 -0.0632281 0.0112725 0.0301349 0.0190707 0.0306609 -0.00596331 0.00694399 -0.0595015 0.0386252 0.012718 -0.0281177 0.0489487 -0.00962032 0.00676279 -0.0148267 0.0244846 -0.0202698 0.0034384 -0.0340373 -0.0677422 0.00927961 -0.0597226 0.0492394 0.0395424 0.0597589 -0.0388687 -0.00424415 -0.0401405 -0.0320123 0.000416223 0.0176228
internal_weight=4696.36 900.44 3795.92 1054.42 801.017 736.586 545.338 446.826 88.6641 358.162 191.248 247.938 85.3023 2741.5 228.643 398.102 222.001 64.4306 67.2255 253.406 67.0173 21.9131 2512.85 340.377 241.859 149.073 2172.48 908.958 1263.52 512.452 381.672 223.747 35.4228 96.0687 685.211 313.778 56.0464 176.101 117.426 257.732 73.4373 32.8829 184.295 22.1905 162.636 73.3174 89.3183 27.9119 104.575 30.9193 113.835 371.433 132.574 502.339 261.387 240.951 20.8731 267.837 34.6089 52.6781 25.2054 137.884
internal_count=19190 3682 15508 4364 3306 3039 2256 1845 371 1474 783 1013 356 11144 937 1613 904 267 274 1058 277 91 10207 1401 996 606 8806 3700 5106 2073 1548 925 145 390 2775 1286 228 709 483 1058 300 135 758 91 657 296 361 113 421 125 473 1489 547 2069 1072 997 85 1075 142 214 101 555
is_linear=0
shrinkage=0.05


Tree=6
num_leaves=63
num_cat=0
split_feature=1 5 5 1 2 6 6 1 1 1 1 1 2 6 2 6 2 4 6 6 2 6 2 2 6 6 6 2 6 2 0 6 1 1 5 2 5 1 5 5 5 5 6 6 7 6 2 6 0 6 1 5 1 1 1 1 6 5 5 6 2 6
split_gain=187.328 320.487 200.89 211.316 124.43 239.234 186.516 178.627 89.639 151.676 94.3567 110.984 53.6607 166.575 48.8669 58.7825 43.8822 47.0792 39.1279 37.1305 229.554 101.955 105.151 38.6737 419.233 202.23 52.8317 137.401 39.3984 62.4451 36.6727 35.4558 29.4585 38.0094 29.2989 28.778 24.4229 26.916 23.4907 23.0853 22.0265 21.5373 21.3328 33.3318 21.2821 21.1284 30.4837 21.1178 20.2143 19.8773 19.6877 26.107 68.3907 50.1408 189.242 35.2223 51.1676 24.813 27.5819 23.77 19.0797 176.07
threshold=13.500000000000002 13.500000000000002 13.500000000000002 10.500000000000002 428.50000000000006 286.7351973684211 447.69981060606068 7.5000000000000009 2.5000000000000004 1.5000000000000002 4.5000000000000009 5.5000000000000009 222.50000000000003 458.83257575757585 289.00000000000006 500.40814393939399 422.50000000000006 4.5000000000000009 582.70175438596505 482.88949579831939 408.00000000000006 381.29166666666669 705.00000000000011 667.50000000000011 798.56666666666672 764.88636363636374 561.35833333333346 705.00000000000011 561.35833333333346 408.00000000000006 6.5000000000000009 234.48844537815128 7.5000000000000009 10.500000000000002 3.5000000000000004 1060.0000000000002 4.5000000000000009 4.5000000000000009 10.500000000000002 4.5000000000000009 10.500000000000002 3.5000000000000004 212.20500000000001 286.7351973684211 21.500000000000004 659.50000000000011 646.75000000000011 620.29249011857723 3.5000000000000004 458.83257575757585 11.500000000000002 10.500000000000002 2.5000000000000004 3.5000000000000004 5.5000000000000009 5.5000000000000009 829.84770114942546 10.500000000000002 4.5000000000000009 825.26796187683306 346.50000000000006 561.35833333333346
decision_type=2 2 2 2 2 2 2 2 2 2 2 2 2 2 2 2 2 2 2 2 2 2 2 2 2 2 2 2 2 2 2 2 2 2 2 2 2 2 2 2 2 2 2 2 2 2 2 2 2 2 2 2 2 2 2 2 2 2 2 2 2 2
left_child=2 14 12 4 6 -6 30 8 9 -7 -10 44 13 -1 15 -2 17 31 34 20 49 -22 -23 24 28 26 27 -25 32 47 -4 -5 -21 -34 -15 -28 37 -37 -36 -16 -35 48 -32 -44 -12 46 -46 -30 -29 -14 51 55 -53 -54 -55 -27 -57 58 59 -52 61 -3
right_child=1 60 3 16 5 7 -8 -9 10 -11 11 -13 19 18 39 -17 -18 -19 -20 23 21 22 -24 25 -26 50 35 41 29 -31 42 -33 33 40 38 36 -38 -39 -40 -41 -42 -43 43 -45 45 -47 -48 -49 -50 -51 57 52 53 54 -56 56 -58 -59 -60 -61 -62 -63
leaf_value=0.044368223713324731 0.0054837090182873402 0.052154786711287773 0.058331964160302535 -0.054589690002805405 -0.08104785499377154 -0.079140100800443369 -0.073164614859871843 0.065441539036285995 -0.074076024999475867 0.072053659550049109 -0.027228954708487192 -0.074369806383419043 0.064002060025150562 0.037381636350977514 -0.027016950417822257 -0.055366328348721627 -0.076370582631703418 -0.07371207294825409 -0.070992642820363466 0.040674059312258704 -0.079139120367116456 0.01449661465071995 -0.079139120367116456 0.028785068809734717 -0.070686394777070935 0.041173473941904522 0.0048641310269819157 0.04075532821579083 0.016313130556826524 0.011844237932289919 0.049677121306938209 0.049401094705133979 -0.082777704102978397 0.00094738326898053727 -0.068816416832963093 0.02947439081027254 -0.080905807199197877 -0.10094407645962458 -0.0017127833105243151 0.011088021932610707 0.047150607170539427 -0.077653754851730192 -0.088844665604494333 0.020815050983170644 0.030147050343188542 0.038413146710229884 -0.054426067301485498 -0.071280596202258475 -0.054412915406492596 0.0048856686516544944 -0.023783598850085217 -0.11008616749426899 0.066284712517203678 -0.11050205288149417 0.040056570617395669 -0.07547371898249744 0.023968998082976457 0.063399443242111483 -0.028633918655043895 0.064327520642472713 0.057234128986698475 -0.083179156416514605
leaf_weight=68.081439971923828 62.572265580296516 223.95797358453274 126.14994159340858 13.034949094057081 136.02880012989044 23.554661557078362 42.049675658345222 74.406389877200127 92.788615077733994 56.083101466298103 29.226522251963615 52.87262549996376 80.298281341791153 16.433638572692871 51.580327019095421 108.52347767353058 182.93612594902515 31.045855343341827 89.364742189645767 197.08995135128498 90.952840447425842 106.40803793072701 41.745021641254425 59.203731641173363 174.75974982976913 298.97133949398994 358.53629498183727 7.9235666245222118 8.7109318077564222 368.3200177103281 18.283034533262253 22.082829281687737 10.247406393289564 70.473656624555588 29.41056415438652 15.955371856689455 19.00449974834919 5.2604888677597037 23.433536216616631 173.26808440685272 40.688446283340454 85.323240384459496 10.853730142116548 19.166076928377151 24.663293614983559 66.794876009225845 18.758614376187325 32.751930415630341 18.862943977117538 17.279209718108177 9.9321085363626462 11.183536872267721 39.590063691139221 28.313267201185226 79.40298293530941 16.216970100998878 63.931049510836601 89.528981491923332 18.63101515173912 33.376642018556595 245.72201545536518 26.92229175567627
leaf_count=279 252 927 525 54 577 101 176 309 395 238 118 225 334 66 209 451 781 132 376 811 390 427 179 238 740 1211 1437 32 35 1495 74 91 41 282 121 64 81 21 95 701 164 365 44 77 99 272 76 132 76 71 40 45 160 114 321 65 258 368 75 135 1030 112
internal_value=-1.73739e-05 0.0205782 -0.00489807 -0.023585 -0.0109473 -0.0231088 0.021362 -0.00516188 -0.0195648 0.0273347 -0.0326651 -0.0126852 0.00223761 -0.0210535 -0.012976 -0.0331126 -0.0637498 -0.0288544 -0.0491293 0.00435083 -0.0110946 -0.0374689 -0.0118871 0.00675589 -0.00114026 0.0124189 -0.00961161 -0.0328342 0.0155481 0.00529548 0.0441464 0.010802 0.0287393 0.00936495 -0.0209266 0.000365267 -0.0397389 -0.00286297 -0.0390595 0.00234672 0.0178591 -0.0653746 0.00709887 -0.0188327 0.0107037 0.0207624 -0.00638922 -0.052878 -0.0262617 0.0535336 0.0306446 0.0261586 0.00911731 0.0181673 0.000482165 0.0332826 0.00384798 0.0465669 0.0222367 0.0441208 0.0473312 0.0376319
internal_weight=4658.92 892.546 3766.38 1040.78 791.68 575.177 216.502 439.149 364.742 79.6378 285.105 192.316 2725.6 226.724 395.944 171.096 249.1 66.1636 158.642 2498.87 336.683 239.106 148.153 2162.19 903.042 1259.15 570.07 171.313 728.282 409.783 174.453 35.1178 318.499 121.41 69.2777 398.757 40.2204 21.2159 52.8441 224.848 111.162 112.11 48.3028 30.0198 139.443 110.217 43.4219 41.4629 26.7865 97.5775 689.078 537.609 158.49 147.306 107.716 379.119 80.148 151.469 61.9398 43.3088 496.602 250.88
internal_count=19190 3682 15508 4364 3306 2410 896 1833 1524 339 1185 790 11144 937 1613 703 1058 277 658 10207 1401 996 606 8806 3700 5106 2314 711 2960 1662 720 145 1298 487 282 1603 166 85 216 910 446 473 195 121 565 447 175 167 108 405 2792 2174 640 595 435 1534 323 618 250 175 2069 1039
is_linear=0
shrinkage=0.05


Tree=7
num_leaves=63
num_cat=0
split_feature=1 5 5 1 1 1 6 1 1 1 0 1 2 2 6 2 6 6 2 4 6 2 2 4 6 5 6 2 6 2 2 6 6 6 2 6 6 6 1 5 1 1 5 5 5 6 2 5 5 5 5 6 6 5 2 5 1 5 2 6 0 1
split_gain=170.568 292.957 184.406 195.232 115.535 147.666 82.0504 60.7465 155.294 111.98 59.8985 57.2982 69.7631 48.9056 152.021 46.1174 45.1356 42.0409 41.0123 43.4604 37.8868 75.1142 49.738 36.5859 36.5694 34.2532 33.8019 209.848 95.2507 97.0767 35.078 384.771 183.449 48.4512 126.323 40.8355 32.4476 31.8476 26.7831 33.1491 56.1965 31.9105 65.7025 33.0865 26.5898 26.293 26.2359 25.4898 22.7822 24.5877 21.6063 21.4626 21.1346 20.5472 20.0196 18.813 19.0019 23.4704 18.5473 18.4145 18.3261 17.898
threshold=13.500000000000002 13.500000000000002 13.500000000000002 10.500000000000002 1.0000000180025095e-35 7.5000000000000009 231.88440860215056 2.5000000000000004 1.5000000000000002 4.5000000000000009 6.5000000000000009 5.5000000000000009 418.00000000000006 222.50000000000003 458.83257575757585 200.50000000000003 381.29166666666669 431.04793028322445 422.50000000000006 4.5000000000000009 724.68181818181836 799.50000000000011 1199.5000000000002 5.5000000000000009 582.70175438596505 3.5000000000000004 482.88949579831939 408.00000000000006 381.29166666666669 705.00000000000011 667.50000000000011 773.2619815668204 764.88636363636374 561.35833333333346 705.00000000000011 817.52058823529421 228.29447115384619 799.18000000000018 5.5000000000000009 10.500000000000002 3.5000000000000004 3.5000000000000004 3.5000000000000004 3.5000000000000004 3.5000000000000004 272.14772727272731 1060.0000000000002 2.0000000000000004 4.5000000000000009 3.5000000000000004 10.500000000000002 817.52058823529421 406.72552447552454 3.5000000000000004 499.50000000000006 5.5000000000000009 12.500000000000002 12.000000000000002 697.00000000000011 458.83257575757585 3.5000000000000004 3.5000000000000004
decision_type=2 2 2 2 2 2 2 2 2 2 2 2 2 2 2 2 2 2 2 2 2 2 2 2 2 2 2 2 2 2 2 2 2 2 2 2 2 2 2 2 2 2 2 2 2 2 2 2 2 2 2 2 2 2 2 2 2 2 2 2 2 2
left_child=2 15 13 4 16 6 -6 8 -8 -9 -7 52 23 14 -1 45 -4 -12 19 36 22 51 25 -13 44 -17 27 59 -29 -30 31 38 33 34 -32 61 -5 -23 39 41 -41 42 -28 47 -16 -2 -35 -43 49 -48 -46 -22 54 60 -11 -40 57 -57 -34 -15 -36 -33
right_child=1 -3 3 18 5 10 7 9 -10 11 17 12 -14 26 24 20 -18 -19 -20 -21 21 37 -24 -25 -26 -27 30 28 29 -31 32 35 58 46 53 -37 -38 -39 55 40 -42 43 -44 -45 50 -47 48 -49 -50 -51 -52 -53 -54 -55 -56 56 -58 -59 -60 -61 -62 -63
leaf_value=0.042427678461486956 0.0093765991119318989 0.045484489032976527 0.074145922910180892 -0.056608534867071326 -0.07183684128405908 0.042654891227840525 -0.076928843657485854 -0.072656418683258048 0.065428374685502375 0.042262091215927985 0.0099290085888960166 0.073348783211407295 -0.072218672350608373 0.06163023989540492 0.035550719025124168 -0.055358082721282037 -0.037233136041949201 -0.076639341557526941 -0.074122059655378283 -0.071443654929592815 -0.030905696021091184 -0.063617734738528969 -0.10018141538875702 -0.073536879211936287 -0.068644719469886248 0.021048259726600575 0.04275506939119559 -0.076921962180441228 0.013783191907276261 -0.076921962180441228 0.027403377347564924 -0.089487821197512238 -0.05205258417433814 0.0046216201056259679 0.038582229914274138 -0.073628387342031296 0.045179221026854774 0.04440730637750754 -0.0014283384867261894 0.023084340930034655 -0.081822771540201511 0.031714733088424867 -0.06759477767445804 0.055713051151391892 -0.066148481607306991 -0.0617394314713147 -0.057094875799111905 -0.079611880969254575 -0.078535951161601711 0.050613383631423495 -0.0016272526889829178 -0.086509524551138875 0.013694148304302628 -0.075418402066626727 -0.064383694504030864 0.037728466100871591 0.035461462693122191 -0.024267400614565601 0.030077529861147107 0.0046451657380326677 -0.052002283038215504 -0.01654833749663966
leaf_weight=67.64665912091732 16.464560687541962 491.05456611514091 51.660705104470253 11.900145471096037 95.003838434815407 121.74999794363976 28.966781631112099 106.10505039989948 56.5708147585392 5.8714548647403744 46.057064533233643 15.413458406925203 61.041794538497925 79.245809882879257 16.416400402784348 15.996177807450293 11.039848387241362 20.16509784758091 179.15687508881092 30.445224821567535 33.846148535609245 8.4231991767883283 9.9049161076545698 5.8476444482803336 87.838964253664017 176.71140988171101 40.152941539883614 88.94638404250145 106.32215398550034 40.824109598994255 59.082444548606873 9.8170684278011304 6.9443975687026969 358.48377653956413 7.9506159871816662 149.20160482823849 22.888365492224693 35.91218313574791 211.66558128595352 53.47759847342968 16.768289655447006 13.8037418872118 20.312859535217285 157.38783538341522 29.075376123189926 61.713278859853745 10.496160119771957 8.1938131749629974 18.609048575162888 10.70013915002346 23.432000398635864 35.61725826561451 137.73460726439953 83.505512341856956 17.565890327095985 25.2335215061903 95.339092895388603 38.649074137210846 679.15668517351151 17.265498653054237 18.753244549036026 58.697546005249023
leaf_count=279 66 2069 221 50 411 509 127 461 244 24 187 66 265 334 66 66 46 87 781 132 139 34 40 25 376 716 165 390 427 179 238 40 28 1437 32 647 95 145 847 216 71 56 85 658 121 259 42 35 81 43 95 148 560 365 73 102 385 155 2764 71 76 238
internal_value=-2.13391e-05 0.0197065 -0.00469972 -0.0227619 -0.0105547 -0.016238 -0.0297394 -0.0205479 0.01722 -0.0297892 0.0218388 -0.0111078 -0.0450509 0.00213469 -0.0202193 -0.0123736 0.0545351 -0.0164316 -0.0617625 -0.0278183 -0.00387695 -0.0269631 0.00908957 0.0329494 -0.0472529 0.014706 0.00415339 -0.0106812 -0.0360737 -0.011382 0.00644575 -0.00109325 0.0118501 -0.00917871 -0.031586 -0.0589544 0.0103606 0.0238838 0.0174054 0.0282498 -0.00195788 0.0370968 0.00568418 0.0476851 -0.0199903 -0.0467621 0.000345452 -0.00975303 -0.0381654 -0.00272249 -0.0373552 -0.0594165 0.00622528 -0.0632098 -0.0376671 0.0083385 0.0213223 0.000220866 0.0292462 0.0514358 -0.0250323 -0.0269994
internal_weight=4620.22 885.644 3734.58 1025.18 780.794 718.093 530.121 435.117 85.5376 349.58 187.972 243.475 82.3029 2709.4 224.409 394.589 62.7006 66.2222 244.391 65.2337 316.411 113.799 202.613 21.2611 156.763 192.708 2484.99 332.604 236.093 147.146 2152.38 898.701 1253.68 567.581 169.292 217.716 34.7885 44.3354 680.984 310.097 70.2459 239.851 60.4658 179.385 68.9238 78.1778 398.289 21.9976 39.8053 21.1963 52.5074 69.4634 161.172 110.209 23.4373 370.887 159.222 63.8826 686.101 96.5113 26.7039 68.5146
internal_count=19190 3682 15508 4364 3306 3039 2256 1845 371 1474 783 1013 356 11144 937 1613 267 274 1058 277 1288 466 822 91 658 782 10207 1401 996 606 8806 3700 5106 2314 711 925 145 179 2775 1286 287 999 250 749 282 325 1603 91 166 85 216 287 657 473 97 1489 642 257 2792 405 108 278
is_linear=0
shrinkage=0.05


Tree=8
num_leaves=63
num_cat=0
split_feature=1 5 5 1 1 1 6 2 1 1 1 1 0 2 6 2 6 6 6 2 4 4 6 6 2 6 2 2 6 6 2 6 6 2 5 6 5 1 1 5 2 6 0 5 6 6 6 2 6 6 2 2 6 0 6 6 6 6 6 2 6 7
split_gain=155.23 267.069 169.256 180.969 106.025 135.283 76.7557 75.5161 66.8013 130.424 94.1691 76.9305 54.5339 44.619 138.901 42.4392 70.1907 41.6921 39.5165 38.4504 40.2007 36.5996 34.2707 30.8055 192.057 89.2711 89.8186 31.7582 353.692 166.358 54.0341 104.303 34.3665 55.7606 32.9897 29.6775 26.744 25.9046 24.2579 22.3101 20.4085 23.1856 19.7186 18.9833 19.0926 18.8426 18.3298 17.9237 171.556 83.7778 33.5737 17.1274 17.106 16.909 16.6133 16.419 16.3122 35.0255 16.2047 35.5589 40.5785 15.975
threshold=13.500000000000002 13.500000000000002 13.500000000000002 10.500000000000002 1.0000000180025095e-35 7.5000000000000009 253.60416666666671 408.00000000000006 2.5000000000000004 1.5000000000000002 4.5000000000000009 5.5000000000000009 6.5000000000000009 222.50000000000003 458.83257575757585 346.50000000000006 527.45000000000016 381.29166666666669 212.20500000000001 422.50000000000006 4.5000000000000009 5.5000000000000009 582.70175438596505 482.88949579831939 408.00000000000006 381.29166666666669 705.00000000000011 667.50000000000011 798.56666666666672 739.71875000000011 705.00000000000011 630.32291666666686 561.35833333333346 408.00000000000006 3.5000000000000004 234.48844537815128 4.5000000000000009 5.5000000000000009 11.500000000000002 4.5000000000000009 200.50000000000003 414.796551724138 3.5000000000000004 3.5000000000000004 929.0584677419356 620.29249011857723 381.29166666666669 399.50000000000006 561.35833333333346 368.81944444444451 418.00000000000006 699.50000000000011 458.83257575757585 6.5000000000000009 821.26820728291329 693.28333333333342 431.04793028322445 286.7351973684211 248.3928571428572 213.75000000000003 368.81944444444451 26.500000000000004
decision_type=2 2 2 2 2 2 2 2 2 2 2 2 2 2 2 2 2 2 2 2 2 2 2 2 2 2 2 2 2 2 2 2 2 2 2 2 2 2 2 2 2 2 2 2 2 2 2 2 2 2 2 2 2 2 2 2 2 2 2 2 2 2
left_child=2 15 13 4 17 6 7 -6 9 -8 -10 61 -7 14 -1 16 40 -4 -14 20 35 -13 38 24 52 -26 -27 28 32 30 55 34 37 45 42 -5 43 -25 53 -17 41 -2 -32 -18 -45 -34 -41 48 58 50 -49 54 -15 -16 -31 -29 57 -20 -3 60 -60 -12
right_child=1 47 3 19 5 12 8 -9 10 -11 11 21 18 23 22 39 36 -19 56 -21 -22 -23 -24 27 25 26 -28 29 -30 51 31 -33 33 -35 -36 -37 -38 -39 -40 46 -42 -43 -44 44 -46 -47 -48 49 -50 -51 -52 -53 -54 -55 -56 -57 -58 -59 59 -61 -62 -63
leaf_value=0.040597261277095315 0.0071709253961088314 0.059335592543224215 0.071887587522826021 -0.050626353903187593 0.035350098250228244 0.040852911699167091 -0.074929522094893827 -0.076150292991241292 -0.06997939310705871 0.066236978736359406 -0.009903635847207326 0.038341026921866785 0.047030778379662144 0.05942874972802651 0.0020659014230094918 -0.027504339868518298 -0.055587451885568961 -0.035485181099633133 -0.085897045545380107 -0.072082990235374456 -0.069372053782005311 -0.069510086535440663 -0.066487872066896728 0.041694358616467753 -0.074928721959032898 0.013105655691542992 -0.074928721959032898 0.025729604947494662 -0.06634211377864313 0.014296470360082334 0.032227721357850146 -0.00013601671468148978 0.014924674203041092 0.010758188681117513 -0.070617507182618305 0.045520951836344227 -0.074548502873600195 0.012998003430664973 0.017441804090257126 -0.055349079282354531 0.018408245035870806 -0.081683997547270418 -0.041143575189223902 0.026412657429647587 -0.084206028584206713 -0.067927216541116747 0.020549421993512607 0.050640125053566798 -0.083027252999851836 0.063014151997275308 -0.085992000542851499 0.027386518675919482 0.004416380811602008 -0.065921754225379589 -0.099293607392141367 -0.018754250833658597 -0.074453962357436107 0.029277832406097826 0.038193657656773156 0.047682762683074927 -0.11642324980199373 0.023144785634637632
leaf_weight=67.173939242959023 17.208730697631839 139.70513543486595 50.645148381590843 12.739807963371275 17.483958184719086 120.78892037272453 23.369797974824905 115.50882238149643 93.03318278491497 54.562955603003502 61.473722651600838 9.1151504963636381 18.157035082578659 78.10147362947464 13.697723045945166 37.817786395549774 26.730692788958549 11.00534977018833 10.730318248271944 175.11597962677479 29.802962243556976 57.411306500434875 86.195747837424278 148.76651540398598 86.801179200410843 106.23024190962315 39.839515581727028 104.44164699316025 168.28050611913204 8.4066730588674528 13.465658560395239 234.9882674664259 8.6893641799688321 366.45360369980335 97.719085305929184 21.6906458735466 64.52339243888855 166.843586191535 27.301165416836739 8.4781288802623731 71.330263316631317 12.804357990622519 28.620181232690811 20.170284345746044 4.835973620414733 32.638623058795929 128.88330873847008 6.6032722592353847 27.699745893478394 211.8993785828352 14.089210465550421 729.66638348996639 17.252286732196808 27.517262130975723 5.216325879096984 25.88455069065094 19.730142667889595 17.153016611933708 9.2401136457920092 69.60653081536293 7.8473195433616629 90.247762069106102
leaf_count=279 69 590 221 54 73 509 105 513 413 240 250 40 74 334 56 154 114 46 44 781 132 254 376 627 390 427 179 421 740 34 54 948 35 1495 430 91 279 671 112 35 287 54 116 81 20 132 520 28 116 912 57 2978 71 114 21 104 87 69 39 294 33 368
internal_value=-2.64445e-05 0.0188552 -0.00451457 -0.0219698 -0.0101716 -0.0156421 -0.0286986 -0.0614918 -0.0174933 0.0239052 -0.0278579 -0.00990263 0.020905 0.00203725 -0.0194397 -0.0118153 -0.0265617 0.0527203 -0.0157297 -0.0599457 -0.0268565 -0.0547328 -0.045507 0.0039679 -0.0102952 -0.0347695 -0.0109051 0.00615544 -0.00105164 0.0113031 -0.0108379 -0.0204812 0.0141367 0.00454903 -0.054678 0.00994494 -0.0530747 0.0265244 -0.0191124 0.0065023 0.00385379 -0.0307369 -0.0176679 -0.0262937 0.00502005 -0.0505073 0.0158649 0.0436077 0.0344275 0.0536368 -0.0423907 0.0263494 0.0494754 -0.0433262 -0.0291978 0.0168945 -0.0396629 -0.0150448 0.048798 0.0318169 -0.0328134 0.0097544
internal_weight=4579.43 879.474 3699.96 1009.77 770.417 708.766 522.207 132.993 389.214 77.9328 311.281 218.248 186.559 2690.19 221.886 392.783 217.604 61.6505 65.7705 239.349 64.2334 66.5265 154.712 2468.31 328.225 232.871 146.07 2140.08 891.672 1248.41 505.119 374.793 723.392 407.782 139.805 34.4305 116.26 315.61 68.5162 175.179 101.343 30.0131 42.0858 51.737 25.0063 41.328 137.361 486.691 254.099 232.592 20.6925 743.289 95.3538 41.215 13.623 130.326 47.6135 27.8833 226.399 86.694 17.0874 151.721
internal_count=19190 3682 15508 4364 3306 3039 2256 586 1670 345 1325 912 783 11144 937 1613 904 267 274 1058 277 294 658 10207 1401 996 606 8806 3700 5106 2073 1548 2960 1662 600 145 494 1298 282 709 410 123 170 215 101 167 555 2069 1072 997 85 3033 405 170 55 525 200 113 956 366 72 618
is_linear=0
shrinkage=0.05


Tree=9
num_leaves=63
num_cat=0
split_feature=1 5 5 1 1 1 6 2 1 1 1 1 0 2 6 6 2 2 4 6 4 6 2 2 5 6 1 6 2 6 2 6 2 6 6 2 6 6 5 6 1 5 1 1 5 5 5 6 1 6 2 5 1 1 5 1 5 1 1 1 1 6
split_gain=141.783 245.089 155.629 168.017 97.4543 124.097 71.5912 70.3041 61.1534 120.549 87.9824 70.9353 49.659 40.706 128.387 39.1678 38.9625 36.1631 37.257 36.1035 33.902 32.816 65.6649 44.9747 29.4697 28.4559 28.2383 28.1855 199.923 68.9586 60.1959 27.2248 26.4492 327.991 156.765 44.8153 120.922 38.8021 32.3699 22.6065 22.1573 31.5055 54.4551 30.4865 59.4795 31.2292 23.5843 20.8193 19.9217 19.7043 19.6332 25.9487 18.9936 26.3312 18.6908 18.2003 23.8423 61.7862 45.7349 169.298 32.1982 46.1796
threshold=13.500000000000002 13.500000000000002 13.500000000000002 10.500000000000002 1.0000000180025095e-35 7.5000000000000009 253.60416666666671 408.00000000000006 2.5000000000000004 1.5000000000000002 4.5000000000000009 5.5000000000000009 6.5000000000000009 222.50000000000003 497.52173913043481 447.69981060606068 200.50000000000003 422.50000000000006 4.5000000000000009 212.20500000000001 5.5000000000000009 724.68181818181836 799.50000000000011 1199.5000000000002 3.5000000000000004 799.18000000000018 11.500000000000002 476.71944444444449 408.00000000000006 381.29166666666669 705.00000000000011 228.29447115384619 667.50000000000011 810.71339950372214 764.88636363636374 705.00000000000011 630.32291666666686 764.88636363636374 3.5000000000000004 272.14772727272731 5.5000000000000009 10.500000000000002 3.5000000000000004 3.5000000000000004 3.5000000000000004 3.5000000000000004 2.0000000000000004 693.28333333333342 11.500000000000002 817.52058823529421 1060.0000000000002 4.5000000000000009 3.5000000000000004 10.500000000000002 4.5000000000000009 11.500000000000002 10.500000000000002 2.5000000000000004 3.5000000000000004 5.5000000000000009 5.5000000000000009 829.84770114942546
decision_type=2 2 2 2 2 2 2 2 2 2 2 2 2 2 2 2 2 2 2 2 2 2 2 2 2 2 2 2 2 2 2 2 2 2 2 2 2 2 2 2 2 2 2 2 2 2 2 2 2 2 2 2 2 2 2 2 2 2 2 2 2 2
left_child=2 16 13 4 15 6 7 -6 9 -8 -10 -12 -7 14 26 -4 39 18 31 -14 -13 23 49 24 -18 -24 -1 28 -15 -30 -31 -5 33 37 35 47 38 40 52 -2 41 43 -43 44 -29 46 -45 -34 -16 -23 -38 -52 -37 -54 -50 56 60 -58 -59 -60 -36 -62
right_child=1 -3 3 17 5 12 8 -9 10 -11 11 20 19 27 48 -17 21 -19 -20 -21 -22 22 25 -25 -26 -27 -28 32 29 30 -32 -33 34 -35 55 36 50 -39 -40 -41 -42 42 -44 45 -46 -47 -48 -49 54 -51 51 -53 53 -55 -56 -57 57 58 59 -61 61 -63
leaf_value=-0.0016044345327919573 0.008553555814316589 0.042056627007006672 0.06440775701164167 -0.052700576174181814 0.033754110068462011 0.039145461414284932 -0.073129830373077229 -0.07424248323883878 -0.06809123017504197 0.064266421953385944 0.0092779507007822119 0.036651732317541479 0.044986805163687554 0.051183198865521688 -0.067085183091873599 -0.070029338701251373 -0.051740524899673714 -0.070224587481349368 -0.067470006550897077 -0.038242181834579433 -0.067583357007448039 -0.028600858139880361 -0.060575810844977152 -0.095709640657954662 0.019752626683508107 0.041786253259358509 0.053200805640059405 0.039894578745677742 -0.073129111399786964 0.0087981008499389123 -0.073129111399786964 0.041653461044030372 0.025942836698534158 -0.068988299167726447 0.036817420369378288 0.025804229890570053 0.0070268476763802341 -0.022102658519884303 -0.068873681981022214 -0.057614278828712284 0.0081533997318843122 0.021257115944285278 -0.080727488810239389 0.029956434482258376 -0.066040851521081592 0.054218749851823358 -0.077829620959303181 -0.018894469254889058 0.0079104622063709464 -0.08239056805124953 0.0081242766428043789 -0.076618228202150418 -0.089761344355831191 0.011478575748163029 -0.055731868252648177 0.042132347714229912 -0.10700606698976574 0.061056022830579648 -0.10670952220954621 0.035675038593623476 -0.0742481794478215 0.020259907644420871
leaf_weight=47.578786700963974 16.456579118967056 479.6178817898035 54.510394409298897 11.587317675352095 17.39734160900116 119.78057365119457 22.7630395591259 112.62617765367031 90.886838242411613 53.452437832951546 151.54723560810089 9.0599316805601102 18.035981684923172 89.264729157090187 79.024694710969925 6.0158305317163459 15.699640974402426 170.87037941813469 29.12812203168869 46.943844705820084 56.128232479095459 33.470772966742516 8.3819973617792112 9.8391565978527051 176.02617461979389 35.734765455126762 46.449330121278763 39.68037873506546 84.547462910413742 82.528265550732613 30.78394803404808 22.471162915229797 110.16430979967117 147.55284523963928 295.28189162909985 16.099644437432289 250.48411445319653 73.385496333241463 103.75062781572342 59.873843133449554 383.81933525204659 56.942984342575073 16.995797097682953 13.735728174448013 19.89308862388134 149.21108734607697 8.0488829612731934 33.843254625797272 21.790072590112686 34.652010798454285 18.907070010900497 17.29812017083168 14.015402913093569 11.855157092213629 24.516520619392395 148.88296137750149 11.229862645268438 38.996060192584991 28.442856565117836 78.482827246189117 16.235350430011749 63.404926657676697
leaf_count=194 66 2069 241 50 73 509 105 513 413 240 618 40 74 385 349 26 66 781 132 200 254 139 34 40 716 145 196 165 390 332 142 95 445 668 1211 65 1004 299 467 259 1544 231 73 56 84 636 35 136 93 148 76 77 57 48 105 618 45 160 114 321 65 258
internal_value=-3.10082e-05 0.0181183 -0.00433652 -0.0212366 -0.00981769 -0.0150907 -0.0277267 -0.0597924 -0.0168646 0.0232307 -0.0267985 -0.00948264 0.0200531 0.00194275 -0.0186934 0.0510458 -0.0113106 -0.0582731 -0.0259538 -0.0151409 -0.0530966 -0.00351762 -0.0251856 0.00854796 0.0138983 0.0223379 0.025469 0.00378756 -0.010933 -0.0389569 -0.0134594 0.00955249 0.00573834 -0.000758019 0.0104362 -0.00875288 -0.0167985 0.012459 -0.0538853 -0.0433487 0.0161438 0.0262153 -0.00218538 0.0353228 0.00452006 0.0460542 -0.00986789 0.0154056 -0.0518256 -0.0559621 0.00205229 -0.032364 -0.0168339 -0.0433683 -0.0257843 0.0266793 0.0223553 0.00600716 0.0147044 -0.00220009 0.0292078 0.000993627
internal_weight=4536.08 869.753 3666.33 993.205 759.148 698.622 513.861 130.024 383.838 76.2155 307.622 216.735 184.76 2673.12 219.359 60.5262 390.135 234.057 63.1866 64.9798 65.1882 313.805 112.24 201.565 191.726 44.1168 94.0281 2453.76 287.124 197.86 113.312 34.0585 2166.64 909.266 1257.37 576.418 432.41 761.713 145.721 76.3304 688.327 304.508 73.9388 230.569 59.5735 170.996 21.7846 144.008 125.331 68.1228 286.689 36.2052 41.9702 25.8706 46.3066 680.957 532.074 157.152 145.922 106.926 374.922 79.6403
internal_count=19190 3682 15508 4364 3306 3039 2256 586 1670 345 1325 912 783 11144 937 267 1613 1058 277 274 294 1288 466 822 782 179 390 10207 1249 864 474 145 8958 3791 5167 2375 1794 3123 637 325 2824 1280 304 976 249 727 91 581 547 287 1157 153 170 105 198 2792 2174 640 595 435 1534 323
is_linear=0
shrinkage=0.05


Tree=10
num_leaves=63
num_cat=0
split_feature=1 5 5 1 1 1 6 1 1 1 0 1 2 2 6 6 6 2 6 6 2 4 4 5 6 2 6 2 2 6 6 1 5 6 2 2 6 6 7 2 6 5 2 6 6 2 4 6 6 1 5 5 1 1 5 5 1 6 1 5 4 1
split_gain=129.172 223.679 143.161 156.338 89.6614 113.921 67.4761 46.226 122.511 91.8322 45.2386 44.5144 58.4275 37.1508 119.861 38.0716 36.7483 36.7473 60.0762 35.065 34.0977 34.5834 29.7814 28.1342 25.7466 183.434 65.2117 56.0297 25.0694 91.6117 25.0006 21.6155 18.6349 18.5427 44.0871 28.9166 46.1596 17.3902 19.0252 17.3193 20.7168 17.208 17.1368 157.677 78.6 20.8178 16.6983 25.9386 16.6697 16.4171 173.041 128.85 126.686 62.5112 59.2767 60.6056 52.7695 29.3746 28.7988 27.138 24.9915 20.6878
threshold=13.500000000000002 13.500000000000002 13.500000000000002 10.500000000000002 1.0000000180025095e-35 7.5000000000000009 231.88440860215056 2.5000000000000004 1.5000000000000002 4.5000000000000009 6.5000000000000009 5.5000000000000009 418.00000000000006 222.50000000000003 276.92780748663102 582.70175438596505 381.29166666666669 346.50000000000006 529.31004140786763 431.04793028322445 422.50000000000006 4.5000000000000009 5.5000000000000009 4.5000000000000009 476.71944444444449 408.00000000000006 381.29166666666669 705.00000000000011 418.00000000000006 620.29249011857723 215.58296703296705 11.500000000000002 4.5000000000000009 622.13750000000016 765.00000000000011 765.00000000000011 729.13437500000009 825.26796187683306 32.500000000000007 200.50000000000003 414.796551724138 3.5000000000000004 399.50000000000006 561.35833333333346 402.18736383442274 418.00000000000006 5.5000000000000009 212.20500000000001 381.29166666666669 4.5000000000000009 4.5000000000000009 4.5000000000000009 10.500000000000002 2.5000000000000004 3.5000000000000004 2.0000000000000004 5.5000000000000009 736.69362745098044 12.500000000000002 5.5000000000000009 5.5000000000000009 12.500000000000002
decision_type=2 2 2 2 2 2 2 2 2 2 2 2 2 2 2 2 2 2 2 2 2 2 2 2 2 2 2 2 2 2 2 2 2 2 2 2 2 2 2 2 2 2 2 2 2 2 2 2 2 2 2 2 2 2 2 2 2 2 2 2 2 2
left_child=2 17 13 4 16 6 -6 8 -8 -9 -7 33 22 14 -1 31 -4 18 39 46 21 30 -13 37 25 -15 -27 -28 29 -26 -5 -16 -19 34 -11 36 -35 38 41 40 -2 -20 43 -3 45 -44 47 -12 -34 50 -30 52 56 59 55 58 57 -51 -54 -52 -59 -56
right_child=1 42 3 20 5 10 7 9 -10 11 19 12 -14 24 15 -17 -18 32 23 -21 -22 -23 -24 -25 28 26 27 -29 49 -31 -32 -33 48 35 -36 -37 -38 -39 -40 -41 -42 -43 44 -45 -46 -47 -48 -49 -50 51 53 -53 54 -55 61 -57 -58 60 -60 -61 -62 -63
leaf_value=0.046973359913605461 0.0065325448130971525 0.045327603929836487 0.068080948588492118 -0.065256168937568027 -0.066402415687396743 0.037523667402027033 -0.071494685227181498 -0.066992088886871234 0.059611310918129094 0.0095154659880306164 0.029828524734388857 0.069038150156466138 -0.066709214863321736 0.049330414424108363 -0.035856260276831198 -0.063014527390038252 -0.033869210300592839 -0.025018834662768143 -0.029824182787117931 -0.071505565377287861 -0.068522915228878573 -0.065714798481478043 -0.067102111949367507 -0.073535138506414868 0.024503865305517489 -0.071498062733216197 0.0083638464723818518 -0.071498062733216197 0.038003654621433951 -0.061841036224009875 0.034120215998290973 0.017086937536447848 -0.053487884063457086 0.042413559369360337 -0.080081758893405783 0.040085335014497576 -0.086865847793330522 -0.07717115029629977 -0.072044532938963859 0.015791685646851222 -0.077485308514542189 0.045819736717825542 0.040675539661669584 -0.081714871140833284 0.060566501761661132 -0.062962535425834215 0.037202327390587965 -0.081706316190861536 0.019248373146659378 -0.07078692274185866 -0.027074208290762569 0.013052002682569839 -0.096352812714697672 -0.0022746383563631823 -0.087296535111469745 0.038574098974771355 -0.089872194016295467 -0.10257297210738464 -0.0052571190399807212 -0.094243503236812784 -0.00022540918160379901 -0.020077611722625097
leaf_weight=53.508486747741699 17.198561385273937 221.31972870230675 48.511508226394653 8.4493090063333494 88.711128711700439 118.73657830059528 26.769759818911552 98.87993785738945 53.287997856736183 53.60691300034523 10.890353947877886 14.786692440509798 57.075290486216545 88.018466472625732 48.31636244058609 82.951324746012688 10.80828036367893 37.454998373985291 13.699578776955606 19.016473695635796 166.46972887217999 28.428598284721375 5.5154901295900336 59.885352492332458 64.826173096895218 82.21158429980278 82.473910689353943 29.933448642492294 345.66210001707077 58.389141425490379 25.218027904629707 32.079072847962379 8.391975522041319 13.934916436672212 18.456898048520088 60.586817190051079 13.6860124617815 11.412805110216139 8.7354164421558362 73.310958981513977 12.795768037438391 16.662969291210175 6.6764214783906963 27.453255414962769 201.75879408419132 17.668654218316078 24.651865229010582 9.9986525774002057 128.3905561119318 31.202780231833458 32.259206667542458 980.06615683436394 12.227200821042059 278.00158195197582 17.120273813605309 112.93970429897308 65.265948250889778 6.6872624903917304 29.872299343347549 28.167940348386765 55.190462917089462 34.538861662149429
leaf_count=227 69 956 221 37 411 509 127 461 244 218 45 66 265 385 201 376 46 154 60 87 781 132 25 269 265 390 332 142 1437 251 108 133 35 57 78 248 56 50 37 296 56 67 29 116 896 72 100 42 520 132 135 4078 50 1171 71 460 270 28 122 117 228 143
internal_value=-3.57119e-05 0.0173531 -0.00417071 -0.0205379 -0.00947798 -0.0145592 -0.0268079 -0.0183764 0.015772 -0.0265 0.0192076 -0.00965223 -0.0407961 0.00185596 -0.017975 -0.0392505 0.0495053 -0.0108133 -0.0247086 -0.0144799 -0.0567281 -0.025108 0.032053 -0.0503536 0.00362202 -0.0105661 -0.0376549 -0.0129029 0.00548508 -0.0164132 0.00918026 -0.0147311 0.0062292 0.00538373 -0.0134321 0.0207558 -0.0216436 -0.0228697 -0.0070189 0.00269657 -0.02931 0.0116892 0.0403631 0.0313079 0.0503261 -0.0345407 0.00933221 -0.0235583 0.0147858 0.00681476 0.0131211 0.0036075 -0.0217489 -0.0122933 0.00403187 0.0194878 -0.055402 -0.0312323 -0.0317146 -0.058385 -0.0112863 -0.0423545
internal_weight=4491.2 862.816 3628.39 976.477 747.912 688.592 505.298 416.587 80.0578 336.529 183.294 237.649 77.3775 2651.91 216.855 163.347 59.3198 387.939 213.701 64.5573 228.566 62.0959 20.3022 110.396 2435.05 282.637 194.619 112.407 2152.42 123.215 33.6673 80.3954 174.238 160.272 72.0638 88.2077 27.6209 50.5108 39.098 103.305 29.9943 30.3625 474.877 248.773 226.104 24.3451 45.5409 20.889 136.783 2029.2 684.091 1345.11 365.045 338.429 206.698 155.039 158.346 93.0805 42.0995 60.4271 61.8777 51.6591
internal_count=19190 3682 15508 4364 3306 3039 2256 1845 371 1474 783 1013 356 11144 937 710 267 1613 904 274 1058 277 91 483 10207 1249 864 474 8958 516 145 334 709 657 296 361 113 214 164 421 125 127 2069 1072 997 101 187 87 555 8442 2860 5582 1504 1423 846 632 658 388 172 252 256 214
is_linear=0
shrinkage=0.05


Tree=11
num_leaves=63
num_cat=0
split_feature=1 5 5 1 1 1 6 2 1 1 1 1 0 6 2 6 6 2 6 6 2 4 4 6 2 6 2 6 2 6 6 2 6 6 2 5 7 1 5 1 1 5 5 5 5 5 2 5 5 4 1 1 6 5 5 5 1 5 5 6 5 1
split_gain=118.035 205.539 132.035 145.492 82.6234 104.789 63.1394 63.6029 51.5646 103.591 77.2261 60.8405 41.2273 34.5854 33.9059 109.609 35.9532 33.6248 55.8301 32.5602 32.2954 32.1597 29.0665 23.475 168.428 61.8172 52.2412 23.3101 22.9876 298.106 140.853 40.0398 33.5148 30.0676 100.73 21.2847 20.7607 20.3762 28.1854 50.552 29.5864 52.88 27.3491 20.9753 20.1501 25.5949 23.5987 18.7982 17.6703 17.8736 17.6655 29.4155 17.3324 17.0173 16.84 18.9465 16.4529 23.7535 25.5011 21.4997 20.6367 50.8441
threshold=13.500000000000002 13.500000000000002 13.500000000000002 10.500000000000002 1.0000000180025095e-35 7.5000000000000009 253.60416666666671 408.00000000000006 2.5000000000000004 1.5000000000000002 4.5000000000000009 5.5000000000000009 6.5000000000000009 492.86689814814821 222.50000000000003 276.92780748663102 582.70175438596505 346.50000000000006 500.40814393939399 431.04793028322445 422.50000000000006 4.5000000000000009 5.5000000000000009 476.71944444444449 408.00000000000006 381.29166666666669 705.00000000000011 234.48844537815128 667.50000000000011 810.71339950372214 764.88636363636374 1060.0000000000002 764.88636363636374 561.35833333333346 705.00000000000011 3.5000000000000004 15.500000000000002 5.5000000000000009 10.500000000000002 3.5000000000000004 3.5000000000000004 3.5000000000000004 3.5000000000000004 2.0000000000000004 3.5000000000000004 8.0000000000000018 195.50000000000003 4.5000000000000009 12.000000000000002 5.5000000000000009 3.5000000000000004 4.5000000000000009 452.97580645161298 3.5000000000000004 4.5000000000000009 3.5000000000000004 11.500000000000002 10.500000000000002 4.5000000000000009 825.26796187683306 10.500000000000002 2.5000000000000004
decision_type=2 2 2 2 2 2 2 2 2 2 2 2 2 2 2 2 2 2 2 2 2 2 2 2 2 2 2 2 2 2 2 2 2 2 2 2 2 2 2 2 2 2 2 2 2 2 2 2 2 2 2 2 2 2 2 2 2 2 2 2 2 2
left_child=2 17 14 4 13 6 7 -6 9 -8 -10 -12 -7 -4 15 -1 44 18 36 -14 21 27 -13 24 -16 -26 -27 -5 29 32 31 33 37 34 -30 -36 -2 38 40 -40 41 -25 43 -42 -17 -46 -47 53 49 -19 -34 -52 -50 -20 55 -33 60 58 59 -58 -32 -62
right_child=1 -3 3 20 5 12 8 -9 10 -11 11 22 19 -15 23 16 -18 48 47 -21 -22 -23 -24 28 25 26 -28 -29 30 -31 56 54 50 -35 35 -37 -38 -39 39 -41 42 -43 -44 -45 45 46 -48 -49 52 -51 51 -53 -54 -55 -56 -57 57 -59 -60 -61 61 -63
leaf_value=0.045140851321256198 -0.081376288876167185 0.038972905271834071 0.060094577001184146 -0.045980819588097632 0.032582309416852626 0.035979940618933802 -0.070015332026331853 -0.071209488506040017 -0.064726151134440843 0.060800288420564563 0.008521367370616921 0.033929870059755805 0.0089277647938457282 -0.075525295098689535 0.047575159376375013 0.035525903675844829 -0.061264255232342038 -0.076371735217477907 -0.051294868805894428 -0.069783695499084142 -0.066957900196428388 -0.064087301470793542 -0.064132714256096873 0.036629447619230551 -0.070014652326162358 0.007951055169188561 -0.070014652326162358 0.04071281975982266 0.025554636890473922 -0.066986973589459028 0.027365751124082068 -0.060658773238971113 -0.086267071505321161 0.0037966291715259832 -0.014354535461001627 -0.069664229441933609 0.015151550952521754 0.007455151331598491 0.020396513484177654 -0.078643699925276075 0.0286273738143091 -0.064024742253706551 0.051935267757530393 -0.074465984989175837 -0.062022881237641318 -0.076665284145391546 0.0229816496426835 -0.061053757565183581 -0.036250587890511908 -0.00074805825539700488 0.060279480580856616 -0.027345175252598188 0.036195772291831081 0.0043314079804866578 -0.073354731996675374 0.023554167600823864 -0.027391530263117483 0.056706371080763332 -0.033102312861469994 0.056893814289435164 -0.096614331452704011 0.013660740185547266
leaf_weight=52.911960765719414 6.004279524087905 467.42619745433331 52.939892306923866 12.269834309816359 17.125463679432869 117.66704715788364 21.489358007907867 106.86715844273567 86.360134035348892 51.168550983071327 150.56932905316353 8.8019149750471097 45.193871080875397 5.1590702682733527 86.735481977462769 16.325670063495636 81.102241069078445 8.4936428815126401 26.451355993747711 18.52390593290329 161.95721267163754 27.711260497570038 53.409731283783913 39.044251531362534 79.81645792722702 82.419331133365631 29.061376988887787 21.066071048378944 64.479101032018661 143.33183069527149 371.85200582444668 13.542747125029564 8.9646366834640485 357.82658989727497 23.20079280436039 69.49989527463913 77.06410613656044 383.1851831972599 56.819026738405228 16.662457972764969 13.669717967510225 19.598657593131065 146.74574783444405 7.7204087525606147 28.454490646719933 7.5566317141056052 27.799176260828972 73.159786835312843 9.6244767159223539 97.549542039632797 11.719236671924589 52.414137780666351 58.060121357440948 28.630730256438255 30.839586898684502 13.178156942129135 9.8588152825832349 86.424210980534554 18.470868140459061 32.53349980711937 11.264360547065733 145.0523973107338
leaf_count=227 24 2069 244 54 73 509 105 513 413 240 618 40 187 23 385 66 376 35 118 87 781 132 254 165 390 332 142 91 262 668 1534 55 37 1437 95 328 314 1544 231 73 56 84 636 35 123 31 114 331 40 398 48 214 236 117 143 55 40 368 75 135 45 595
internal_value=-3.91282e-05 0.0166898 -0.00400228 -0.0198996 -0.00917021 -0.0140796 -0.0259763 -0.0568741 -0.0156721 0.0221102 -0.024849 -0.00866434 0.0184385 0.0480518 0.00176803 -0.0173032 -0.0377949 -0.0103612 -0.0237587 -0.0139551 -0.0552759 -0.0242838 -0.0502585 0.00345156 -0.0102192 -0.0364236 -0.0123735 0.00880378 0.00522115 -0.000870428 0.00961343 -0.00863084 0.0116558 -0.00421047 -0.022439 -0.0558215 0.00817441 0.0150975 0.0248504 -0.00206157 0.0335705 0.00299048 0.0442362 -0.00858245 -0.0140425 -0.0267244 0.00168401 -0.0444433 0.00593452 -0.00680522 -0.0205231 -0.0113333 0.0258942 -0.0223813 -0.0481809 -0.0191268 0.0250786 0.039856 0.0159288 0.0372923 0.0209578 0.0057142
internal_weight=4450.83 852.464 3598.36 958.28 735.275 677.176 495.792 123.993 371.799 72.6579 299.141 212.781 181.385 58.099 2640.08 214.15 161.238 385.038 211.31 63.7178 223.004 61.0472 62.2116 2425.93 278.033 191.297 111.481 33.3359 2147.9 899.875 1248.02 572.567 756.543 515.006 157.18 92.7007 83.0684 683.445 300.26 73.4815 226.779 58.6429 168.136 21.3901 80.136 63.8103 35.3558 128.242 173.728 106.043 73.098 64.1334 67.6846 55.0821 57.5605 26.7209 675.456 147.287 60.8632 42.3923 528.169 156.317
internal_count=19190 3682 15508 4364 3306 3039 2256 586 1670 345 1325 912 783 267 11144 937 710 1613 904 274 1058 277 294 10207 1249 864 474 145 8958 3791 5167 2375 3123 2122 685 423 338 2824 1280 304 976 249 727 91 334 268 145 566 709 433 299 262 276 235 253 110 2792 618 250 175 2174 640
is_linear=0
shrinkage=0.05


Tree=12
num_leaves=63
num_cat=0
split_feature=1 5 5 1 1 1 6 1 1 1 1 2 0 6 2 2 6 2 6 4 6 2 2 4 5 5 1 6 6 2 6 2 2 6 6 1 6 5 6 2 2 6 2 6 6 2 6 2 6 6 5 1 5 5 1 1 5 5 1 6 1 5
split_gain=107.619 187.722 121.668 135.759 76.1381 96.3257 59.4709 38.7634 105.31 80.9982 37.9674 51.8343 37.5923 32.7525 31.557 31.0211 100.469 30.6019 30.3018 29.9379 27.8143 55.4952 40.8811 25.9454 25.8287 24.6962 24.0668 21.5017 21.4622 154.744 58.7252 48.7847 21.7394 80.986 18.7663 18.6158 18.2511 17.3005 16.477 40.4519 26.3049 42.2041 16.4599 136.281 62.8694 29.154 16.6704 32.3657 36.7164 15.3832 15.3244 15.27 150.173 115.61 114.297 54.6702 53.0307 53.3273 47.8759 26.5547 26.4152 23.5164
threshold=13.500000000000002 13.500000000000002 13.500000000000002 10.500000000000002 1.0000000180025095e-35 7.5000000000000009 231.88440860215056 2.5000000000000004 1.5000000000000002 4.5000000000000009 5.5000000000000009 418.00000000000006 6.5000000000000009 381.29166666666669 200.50000000000003 222.50000000000003 497.52173913043481 422.50000000000006 431.04793028322445 4.5000000000000009 724.68181818181836 799.50000000000011 1199.5000000000002 5.5000000000000009 12.000000000000002 3.5000000000000004 11.500000000000002 215.58296703296705 476.71944444444449 408.00000000000006 381.29166666666669 705.00000000000011 418.00000000000006 620.29249011857723 272.14772727272731 11.500000000000002 817.52058823529421 4.5000000000000009 622.13750000000016 765.00000000000011 765.00000000000011 729.13437500000009 346.50000000000006 561.35833333333346 406.72552447552454 496.50000000000006 248.3928571428572 213.75000000000003 368.81944444444451 881.45438596491238 2.0000000000000004 4.5000000000000009 4.5000000000000009 4.5000000000000009 10.500000000000002 2.5000000000000004 3.5000000000000004 2.0000000000000004 5.5000000000000009 736.69362745098044 12.500000000000002 5.5000000000000009
decision_type=2 2 2 2 2 2 2 2 2 2 2 2 2 2 2 2 2 2 2 2 2 2 2 2 2 2 2 2 2 2 2 2 2 2 2 2 2 2 2 2 2 2 2 2 2 2 2 2 2 2 2 2 2 2 2 2 2 2 2 2 2 2
left_child=2 14 15 4 13 6 -6 8 -8 -9 38 23 -7 -4 34 16 26 19 -14 27 22 36 25 -12 49 50 -1 -5 29 -17 -31 -32 33 -30 -2 -18 -22 -37 39 -11 41 -40 43 46 45 -44 -3 48 -48 -23 -16 52 -34 54 58 61 57 60 59 -53 -56 -54
right_child=1 42 3 17 5 12 7 9 -10 10 11 -13 18 -15 20 28 35 -19 -20 -21 21 24 -24 -25 -26 -27 -28 -29 32 30 31 -33 51 -35 -36 37 -38 -39 40 -41 -42 -43 44 -45 -46 -47 47 -49 -50 -51 -52 53 55 -55 56 -57 -58 -59 -60 -61 -62 -63
leaf_value=-0.0024515210370085242 0.0077172902869141651 0.05267310153599674 0.064855522762976653 -0.061975769420907281 -0.063358791496725034 0.034507742657923571 -0.068654545154952354 -0.063907147064307807 0.056313156284364112 0.0089512242584203587 0.066287715561238872 -0.063675187956219778 0.0084852385360505347 -0.03255293172679076 0.026457352358461118 0.045906650966160242 -0.062350790326293509 -0.06551256981010746 -0.068204749897904246 -0.062571344947648433 -0.025747894514649157 -0.051394952468936439 -0.091860680917368889 -0.063551381649083652 0.07096152464049188 0.018643012033093802 0.048695073660132357 0.031638347071954724 0.022828815675344012 -0.068661263159080541 0.0075586288469911382 -0.068661263159080541 0.035660009446745168 -0.058989944976955748 -0.052944011661214666 0.01118588767033228 -0.078383288578675492 -0.051097428161630425 0.040157766001142389 -0.077606312656024565 0.037938329196015919 -0.084095029590266102 0.030321689775043945 -0.079385892042111064 0.057483887948935067 -0.066966760167207304 0.031472537384495645 0.040001342440089224 -0.11718446077104588 0.023813422231995788 -0.081540306161547213 -0.068010445344351855 -0.025622207655662921 0.01210392885592123 -0.092304328722289511 -0.0020372275369388419 -0.040530875686174576 0.036150422870518818 -0.08629415869336314 -0.011123698036837807 -0.0046625630488737147 -0.088561190339214502
leaf_weight=47.069781586527824 16.422504246234894 129.75527282059193 46.240719050168991 8.1513774842023832 84.233973100781441 116.58076795935631 25.194557160139084 93.696491777896881 50.950759947299957 53.46967738866806 14.279020801186563 54.203556597232819 45.173834234476089 10.609596654772757 4.7848104834556553 85.427151769399643 74.346434697508812 157.37031333148479 18.017944067716599 26.982065856456757 32.845505326986313 11.990024894475939 9.7118647396564466 5.2667737007141104 16.055104658007622 174.66654659807682 44.977040156722069 24.781552225351334 64.471738755702972 77.381964772939682 82.364822909235954 28.174971789121628 341.95192894339561 56.969092324376106 57.005669116973877 21.230191946029663 33.031870141625404 23.480992540717125 13.836971893906595 18.056105956435204 60.148044660687447 13.503543496131895 15.08418518304825 26.17748498916626 195.9787073135376 15.73112069070339 8.8471013754606265 63.095608666539192 7.8295682668685904 15.704734891653059 10.476939082145691 30.779594197869301 31.989630356431007 972.78377832472324 12.089585080742834 275.59461960196495 51.228822723031044 112.25356696546078 64.301443591713905 61.511340364813805 29.764200866222382 27.685794413089752
leaf_count=194 66 576 221 37 411 509 127 461 244 218 66 265 187 46 21 385 349 781 87 132 139 49 40 25 66 716 196 108 265 390 332 142 1437 251 259 93 148 105 57 78 248 56 66 112 899 65 39 279 33 64 45 132 135 4078 50 1171 214 460 270 256 122 117
internal_value=-4.42698e-05 0.0159942 -0.00385354 -0.019276 -0.00886665 -0.0136035 -0.0251533 -0.0171599 0.0149645 -0.0246527 -0.0088513 -0.0385035 0.0176742 0.0466768 -0.00991048 0.0016887 -0.016689 -0.0539345 -0.0133815 -0.0235241 -0.00291439 -0.0231493 0.00819711 0.0313015 0.0205041 0.0133135 0.0225404 0.0084675 0.0033007 -0.00989005 -0.0352546 -0.0118687 0.00499083 -0.0155532 -0.0393769 -0.0470184 -0.05214 -0.0215235 0.00490112 -0.0128995 0.0194539 -0.021211 0.037429 0.0281765 0.047045 -0.0193438 0.0416149 0.0236278 -0.0383208 -0.0087469 -0.0476813 0.00623087 0.0123461 0.00312806 -0.0209971 -0.0114325 0.00354037 0.0181907 -0.0531725 -0.0300958 -0.0299781 -0.0548221
internal_weight=4403.77 845.195 3558.58 940.748 723.462 666.612 486.839 402.606 76.1453 326.46 232.764 73.7494 179.773 56.8503 382.696 2617.83 211.104 217.285 63.1918 59.915 309.267 109.627 199.64 19.5458 43.7499 189.928 92.0468 32.9329 2406.72 273.349 187.922 110.54 2133.38 121.441 73.4282 119.058 65.8774 44.7112 159.014 71.5258 87.4886 27.3405 462.499 235.705 226.794 30.8153 209.528 79.7723 16.6767 27.6948 15.2617 2011.93 677.222 1334.71 361.929 335.27 205.336 154.107 156.592 92.2909 41.8538 59.6754
internal_count=19190 3682 15508 4364 3306 3039 2256 1845 371 1474 1013 356 783 267 1613 11144 937 1058 274 277 1288 466 822 91 179 782 390 145 10207 1249 864 474 8958 516 325 547 287 198 657 296 361 113 2069 1039 1030 131 927 351 72 113 66 8442 2860 5582 1504 1423 846 632 658 388 172 252
is_linear=0
shrinkage=0.05


Tree=13
num_leaves=63
num_cat=0
split_feature=1 5 5 1 1 1 6 2 1 1 1 1 0 6 2 6 2 6 2 6 6 4 4 6 6 2 2 6 2 6 6 2 6 2 6 2 5 1 1 5 5 6 1 5 5 2 6 1 6 5 6 2 6 6 2 1 5 5 6 5 1 1
split_gain=98.4026 172.731 112.342 126.699 70.2706 88.7276 56.0605 57.97 43.6118 89.4491 68.1894 52.4076 34.2846 30.5468 29.3051 35.7864 29.1058 28.6263 28.3237 94.4299 32.5695 27.9084 25.0319 19.9624 19.6559 132.322 55.7206 67.3692 21.6183 271.474 123.148 35.8467 30.4269 37.2058 27.2233 71.6341 28.7721 20.9957 29.4552 37.2031 20.8025 20.516 19.1124 18.4361 22.7414 21.0177 18.3523 18.3391 16.2184 15.7597 16.98 15.4143 134.083 69.7427 26.7617 15.1353 21.9438 23.3934 19.1779 17.8734 44.8424 118.537
threshold=13.500000000000002 13.500000000000002 13.500000000000002 10.500000000000002 1.0000000180025095e-35 7.5000000000000009 253.60416666666671 408.00000000000006 2.5000000000000004 1.5000000000000002 4.5000000000000009 5.5000000000000009 6.5000000000000009 492.86689814814821 289.00000000000006 486.30306267806276 422.50000000000006 212.20500000000001 222.50000000000003 276.92780748663102 582.70175438596505 4.5000000000000009 5.5000000000000009 234.48844537815128 482.88949579831939 705.00000000000011 408.00000000000006 381.29166666666669 667.50000000000011 810.71339950372214 764.88636363636374 1060.0000000000002 664.96464646464653 408.00000000000006 661.2048611111112 705.00000000000011 3.5000000000000004 3.5000000000000004 4.5000000000000009 4.5000000000000009 3.5000000000000004 734.92827586206909 3.5000000000000004 3.5000000000000004 8.0000000000000018 195.50000000000003 602.67083333333346 10.500000000000002 458.83257575757585 4.5000000000000009 640.13888888888903 399.50000000000006 561.35833333333346 368.81944444444451 418.00000000000006 11.500000000000002 10.500000000000002 4.5000000000000009 825.26796187683306 10.500000000000002 5.5000000000000009 3.5000000000000004
decision_type=2 2 2 2 2 2 2 2 2 2 2 2 2 2 2 2 2 2 2 2 2 2 2 2 2 2 2 2 2 2 2 2 2 2 2 2 2 2 2 2 2 2 2 2 2 2 2 2 2 2 2 2 2 2 2 2 2 2 2 2 2 2
left_child=2 14 18 4 13 6 7 -6 9 -8 -10 -12 -7 -4 15 -2 21 -14 19 -1 43 23 -13 -5 25 26 48 -28 29 32 31 34 -26 -34 35 -30 42 41 -39 40 -40 -35 -37 -21 -45 -46 -38 -44 -20 50 -33 52 -3 54 -53 59 57 58 -57 -32 61 -61
right_child=1 51 3 16 5 12 8 -9 10 -11 11 22 17 -15 -16 -17 -18 -19 24 20 -22 -23 -24 -25 28 -27 27 -29 30 -31 55 49 33 37 -36 36 46 38 39 -41 -42 -43 47 44 45 -47 -48 -49 -50 -51 -52 53 -54 -55 -56 56 -58 -59 -60 60 -62 -63
leaf_value=0.042427494509343085 0.0095669007373705168 0.040674352772904487 0.0570075522135432 -0.043298889785129996 0.031538796988593215 0.033101424366076986 -0.067423654364858684 -0.06868676165308582 -0.061817773944895717 0.057746156136904016 0.0078347938471956518 0.031438160357640112 0.040952261594138985 -0.072910415995427608 0.0023611664728211777 -0.041565625011231441 -0.064172455274993295 -0.034070410858117635 0.051050205046405062 0.034633380069515572 -0.058432455320953848 -0.061153064062917997 -0.061137321556025151 0.037907954848802973 0.019603005513402189 -0.06769095062894824 -0.067422957753066295 0.010746587531748354 0.019382454833018394 -0.065207612844707635 0.025622716048552343 -0.080523279234440734 -0.056198682429956341 -0.0041693899147190244 0.0065670564708801629 0.033479018723773277 -0.068296134241759857 0.057627269515332091 -0.010687156351675836 0.018297788897472921 -0.074793471012079837 -0.080520385370995526 -0.080661036714994111 -0.059052890296488685 -0.072899245647384772 0.021702744449429649 -0.02153295611828928 0.0067371495447237015 -0.0036536849990189131 -0.071728803478751643 0.0073410120630003246 0.04316937360562708 -0.078385842831379948 0.055031120029720028 -0.081567906560465905 -0.025361846238359426 0.054252314265372636 -0.031971535477790525 0.05428168671217503 0.025384569192516859 0.032360848791937777 -0.1025054391141125
leaf_weight=51.830540835857391 49.537758871912956 213.04722487926483 50.609471082687378 11.950623556971548 16.834681779146194 115.4853488355875 20.172586798667908 100.89105340838432 81.678949519991875 48.804511234164238 149.48538590967655 8.5337312370538694 17.735101833939552 4.9686609059572211 219.9536756426096 110.65398173034191 152.7414512783289 44.92108690738678 72.227459847927094 16.252286076545715 77.625402718782425 26.246180593967438 50.590064823627472 20.634699761867523 428.43035240471363 72.487145230174065 37.270540088415146 105.82376298308372 84.87160450220108 138.96678917109966 368.77495793998241 7.7830853909254101 27.855282545089722 27.170209169387817 273.89851984381676 18.62642714381218 67.389812514185905 28.745998129248619 48.262113735079765 137.73108747601509 17.152245551347733 13.012023657560347 11.22898153960705 27.62817120552063 7.4557223021984091 27.625460386276245 30.466034084558487 12.894985124468802 16.677640825510025 29.120861649513245 18.733586668968201 6.2370169758796719 26.599597930908203 195.05005951225758 13.844819545745848 9.8908098191022855 84.900243446230888 18.5168177485466 32.055096045136452 49.62940439581871 77.539870455861092 28.536234557628632
leaf_count=227 202 956 244 54 73 509 105 513 413 240 618 40 74 23 910 501 781 200 334 66 376 132 254 91 1790 375 194 427 346 668 1534 34 115 113 1101 75 322 122 198 569 70 55 47 123 31 114 122 52 71 139 76 28 116 912 57 40 368 75 135 205 321 114
internal_value=-4.69634e-05 0.0153884 -0.0037005 -0.0186972 -0.00858585 -0.0131651 -0.0244102 -0.0543546 -0.0145979 0.0211398 -0.0230897 -0.00792616 0.0169446 0.0453929 -0.00948619 -0.0257534 -0.052663 -0.0128349 0.0016088 -0.0160707 -0.0354337 -0.0227814 -0.0477753 0.00812545 0.00314624 -0.00872314 0.00970109 -0.00961356 0.00487365 -0.00116629 0.00915055 -0.00826652 0.0110524 -0.00116154 -0.00402508 -0.0168919 -0.0387875 0.00447324 0.0102551 0.00355171 -0.0274964 -0.0288938 -0.00456771 -0.0128242 -0.0251237 0.0015972 -0.0537371 -0.0339441 0.0407883 -0.0463356 -0.0184486 0.0361809 0.0274593 0.0458964 -0.042827 0.0235819 0.0378582 0.014838 0.0355018 0.0196251 0.00542022 -0.0213047
internal_weight=4362.3 834.924 3527.37 922.284 710.711 655.133 476.991 117.726 359.265 68.9771 290.288 208.609 178.142 55.5781 380.145 160.192 211.573 62.6562 2605.09 208.418 156.587 58.8315 59.1238 32.5853 2396.67 304.487 231.999 143.094 2092.18 867.326 1224.86 555.014 728.359 299.929 499.376 225.478 140.606 272.074 231.891 203.145 65.4144 40.1822 42.7504 78.9616 62.7094 35.0812 97.8558 24.124 88.9051 55.6375 26.5167 454.779 239.647 215.132 20.0818 669.843 145.363 60.4627 41.9459 524.48 155.706 78.1656
internal_count=19190 3682 15508 4364 3306 3039 2256 586 1670 345 1325 912 783 267 1613 703 1058 274 11144 937 710 277 294 145 10207 1401 1026 621 8806 3700 5106 2314 3032 1242 2065 964 618 1127 959 837 268 168 174 334 268 145 444 99 405 249 110 2069 1072 997 85 2792 618 250 175 2174 640 319
is_linear=0
shrinkage=0.05


Tree=14
num_leaves=63
num_cat=0
split_feature=1 5 5 1 1 1 6 2 1 1 1 1 0 6 2 2 6 4 2 6 6 6 2 2 5 4 5 6 6 2 6 2 1 5 5 1 1 1 5 5 2 6 1 5 1 6 1 5 6 2 2 2 1 6 0 4 6 4 6 2 6 6
split_gain=89.9574 159.079 103.631 118.512 64.8398 81.6655 52.7767 54.4463 40.0349 83.1791 64.2338 48.5724 31.2586 29.3531 27.6877 27.669 27.5826 26.0383 25.9327 86.5882 30.7321 25.1609 49.8935 37.5305 23.6581 23.3526 22.1359 18.5501 18.0208 131.49 51.7873 41.8441 19.6136 129.597 92.5028 111.983 47.2428 44.7774 35.6356 49.6898 25.6529 65.4084 25.4062 23.7326 23.2954 23.0248 20.8021 20.5831 18.8701 32.1261 22.4744 18.3567 17.5723 17.429 16.4998 22.2314 16.3854 15.706 22.3555 14.5384 115.094 54.6486
threshold=13.500000000000002 13.500000000000002 13.500000000000002 10.500000000000002 1.0000000180025095e-35 7.5000000000000009 253.60416666666671 408.00000000000006 2.5000000000000004 1.5000000000000002 4.5000000000000009 5.5000000000000009 6.5000000000000009 381.29166666666669 422.50000000000006 200.50000000000003 431.04793028322445 4.5000000000000009 222.50000000000003 276.92780748663102 582.70175438596505 724.68181818181836 799.50000000000011 1199.5000000000002 12.000000000000002 5.5000000000000009 3.5000000000000004 215.58296703296705 476.71944444444449 422.50000000000006 381.29166666666669 705.00000000000011 4.5000000000000009 4.5000000000000009 4.5000000000000009 10.500000000000002 2.5000000000000004 5.5000000000000009 3.5000000000000004 2.0000000000000004 408.00000000000006 575.33611111111122 12.500000000000002 5.5000000000000009 12.500000000000002 929.0584677419356 12.500000000000002 2.0000000000000004 620.29249011857723 469.00000000000006 499.50000000000006 765.00000000000011 11.500000000000002 817.52058823529421 6.5000000000000009 6.5000000000000009 272.14772727272731 5.5000000000000009 212.20500000000001 346.50000000000006 561.35833333333346 406.72552447552454
decision_type=2 2 2 2 2 2 2 2 2 2 2 2 2 2 2 2 2 2 2 2 2 2 2 2 2 2 2 2 2 2 2 2 2 2 2 2 2 2 2 2 2 2 2 2 2 2 2 2 2 2 2 2 2 2 2 2 2 2 2 2 2 2
left_child=2 15 18 4 13 6 7 -6 9 -8 -10 -12 -7 -4 17 56 57 27 19 -1 52 23 53 26 -24 -13 -17 -5 29 -20 -31 -32 33 54 35 37 43 45 39 44 41 -36 -40 -35 -37 47 -41 -34 49 -48 -50 -47 -21 -23 -30 -56 -2 58 -14 60 -3 -61
right_child=1 59 3 14 5 12 8 -9 10 -11 11 25 16 -15 -16 21 -18 -19 28 20 -22 22 24 -25 -26 -27 -28 -29 32 30 31 -33 34 36 40 38 -38 -39 42 46 -42 -43 -44 -45 -46 51 48 -49 50 -51 -52 -53 -54 -55 55 -57 -58 -59 -60 61 -62 -63
